{"learner":{"attributes":{"scikit_learn":"{\"_estimator_type\": \"classifier\"}"},"feature_names":["total_reactions","like","rocket","buy-up","dislike","not-convinced","get-rid","SBER","SBERP","GAZP","LKOH","VTBR","MOEX","ROSN","YNDX","TCSG","NVTK","USDRUB","TATN","GMKN","MGNT","POLY","VKCO","CHMF","MTSS","OZON","POSI","predicted_label","predicted_score"],"feature_types":["float","float","float","float","float","float","float","float","float","float","float","float","float","float","float","float","float","float","float","float","float","float","float","float","float","float","float","float","float"],"gradient_booster":{"gbtree":{"model":{"gbtree_model_param":{"num_parallel_tree":"1","num_trees":"300"},"iteration_indptr":[0,3,6,9,12,15,18,21,24,27,30,33,36,39,42,45,48,51,54,57,60,63,66,69,72,75,78,81,84,87,90,93,96,99,102,105,108,111,114,117,120,123,126,129,132,135,138,141,144,147,150,153,156,159,162,165,168,171,174,177,180,183,186,189,192,195,198,201,204,207,210,213,216,219,222,225,228,231,234,237,240,243,246,249,252,255,258,261,264,267,270,273,276,279,282,285,288,291,294,297,300],"tree_info":[0,1,2,0,1,2,0,1,2,0,1,2,0,1,2,0,1,2,0,1,2,0,1,2,0,1,2,0,1,2,0,1,2,0,1,2,0,1,2,0,1,2,0,1,2,0,1,2,0,1,2,0,1,2,0,1,2,0,1,2,0,1,2,0,1,2,0,1,2,0,1,2,0,1,2,0,1,2,0,1,2,0,1,2,0,1,2,0,1,2,0,1,2,0,1,2,0,1,2,0,1,2,0,1,2,0,1,2,0,1,2,0,1,2,0,1,2,0,1,2,0,1,2,0,1,2,0,1,2,0,1,2,0,1,2,0,1,2,0,1,2,0,1,2,0,1,2,0,1,2,0,1,2,0,1,2,0,1,2,0,1,2,0,1,2,0,1,2,0,1,2,0,1,2,0,1,2,0,1,2,0,1,2,0,1,2,0,1,2,0,1,2,0,1,2,0,1,2,0,1,2,0,1,2,0,1,2,0,1,2,0,1,2,0,1,2,0,1,2,0,1,2,0,1,2,0,1,2,0,1,2,0,1,2,0,1,2,0,1,2,0,1,2,0,1,2,0,1,2,0,1,2,0,1,2,0,1,2,0,1,2,0,1,2,0,1,2,0,1,2,0,1,2,0,1,2,0,1,2,0,1,2,0,1,2,0,1,2,0,1,2,0,1,2,0,1,2,0,1,2],"trees":[{"base_weights":[-6.186953E-1,1.208289E0,-7.370967E-1,4.2439023E-1,1.4093959E0,-5.24618E-1,-7.4562734E-1,5.238095E-1,-4.8000004E-2,1.4418938E0,7.8947365E-1,-5.9767896E-1,-3.973643E-8,-7.46272E-2,-2.5544848E-9,3.8961E-2,7.933884E-1,1.4540145E0,4.285714E-2,-1.2000003E-2,1.1707317E-1,-6.247423E-1,-1.463415E-1,7.317073E-1,-6.1224498E-2,-1.9672137E-2,6E-2,9.428572E-2,-1.2000003E-2,1.4665677E-1,4.285714E-2,-6.5478854E-2,-2.0000003E-2,-4.8000004E-2,2.3999998E-2,1.0344827E-1,-2.5544848E-9],"categories":[],"categories_nodes":[],"categories_segments":[],"categories_sizes":[],"default_left":[0,0,0,0,0,0,0,0,0,0,0,0,0,0,0,0,0,0,0,0,0,0,0,0,0,0,0,0,0,0,0,0,0,0,0,0,0],"id":0,"left_children":[1,3,5,7,9,11,13,15,-1,17,19,21,23,-1,-1,25,27,29,-1,-1,-1,31,33,35,-1,-1,-1,-1,-1,-1,-1,-1,-1,-1,-1,-1,-1],"loss_changes":[3.7115417E2,1.5884781E1,2.5236206E0,2.2994657E0,5.293274E-1,2.5084229E0,7.4194336E-1,2.713892E0,0E0,3.2803345E-1,2.3365338E0,6.1024284E-1,4.4798408E0,0E0,0E0,1.2493081E0,1.9486189E0,3.5121155E-1,0E0,0E0,0E0,5.567665E-1,7.02439E-1,1.0092514E0,0E0,0E0,0E0,0E0,0E0,0E0,0E0,0E0,0E0,0E0,0E0,0E0,0E0],"parents":[2147483647,0,0,1,1,2,2,3,3,4,4,5,5,6,6,7,7,9,9,10,10,11,11,12,12,15,15,16,16,17,17,21,21,22,22,23,23],"right_children":[2,4,6,8,10,12,14,16,-1,18,20,22,24,-1,-1,26,28,30,-1,-1,-1,32,34,36,-1,-1,-1,-1,-1,-1,-1,-1,-1,-1,-1,-1,-1],"split_conditions":[-9.029239E-2,-1.8195144E0,-1.1996258E0,3.0094748E0,3.1617327E0,7.7336985E-1,7.692942E0,-5.2721543E0,-4.8000004E-2,4.819098E0,7.740794E-1,-1.3734987E0,2.4464622E0,-7.46272E-2,-2.5544848E-9,2.047012E0,2.420575E0,6.442525E0,4.285714E-2,-1.2000003E-2,1.1707317E-1,3.8989754E0,5.2650195E-1,1.224002E0,-6.1224498E-2,-1.9672137E-2,6E-2,9.428572E-2,-1.2000003E-2,1.4665677E-1,4.285714E-2,-6.5478854E-2,-2.0000003E-2,-4.8000004E-2,2.3999998E-2,1.0344827E-1,-2.5544848E-9],"split_indices":[27,28,28,12,15,0,12,28,0,10,7,28,27,0,0,14,9,17,0,0,0,14,4,2,0,0,0,0,0,0,0,0,0,0,0,0,0],"split_type":[0,0,0,0,0,0,0,0,0,0,0,0,0,0,0,0,0,0,0,0,0,0,0,0,0,0,0,0,0,0,0,0,0,0,0,0,0],"sum_hessian":[1.7106665E3,1.0355555E2,1.607111E3,2.1777777E1,8.177777E1,6.444444E1,1.5426666E3,1.9999998E1,1.7777777E0,7.644444E1,5.333333E0,5.6444443E1,7.9999995E0,1.5413333E3,1.3333333E0,7.5555553E0,1.2444444E1,7.511111E1,1.3333333E0,1.7777777E0,3.5555553E0,5.2888885E1,3.5555553E0,3.5555553E0,4.444444E0,5.7777777E0,1.7777777E0,1.0666666E1,1.7777777E0,7.377777E1,1.3333333E0,4.8888885E1,3.9999998E0,1.7777777E0,1.7777777E0,2.222222E0,1.3333333E0],"tree_param":{"num_deleted":"0","num_feature":"29","num_nodes":"37","size_leaf_vector":"1"}},{"base_weights":[1.1170399E0,-6.982838E-2,1.4567922E0,3.1623524E-1,-6.903861E-1,1.488187E0,-7.1186446E-2,-6.2805533E-1,1.0586756E0,-7.035906E-1,4.285714E-2,1.4896903E0,5.454545E-1,-3.2751098E-1,-7.1567273E-1,2.4896263E-1,1.251821E0,-7.2315043E-1,-1.9672136E-1,1.4904442E-1,4.285714E-2,-2.5544848E-9,8.571428E-2,-4.285715E-2,8.571428E-2,-7.2778575E-2,-2.5544848E-9,4.0191386E-2,-5.853659E-2,1.2752391E-1,1.0344825E-2,-7.3012054E-2,-2.5544848E-9,4.285714E-2,-4.2857148E-2],"categories":[],"categories_nodes":[],"categories_segments":[],"categories_sizes":[],"default_left":[0,0,0,0,0,0,0,0,0,0,0,0,0,0,0,0,0,0,0,0,0,0,0,0,0,0,0,0,0,0,0,0,0,0,0],"id":1,"left_children":[1,3,5,7,9,11,-1,13,15,17,-1,19,21,23,25,27,29,31,33,-1,-1,-1,-1,-1,-1,-1,-1,-1,-1,-1,-1,-1,-1,-1,-1],"loss_changes":[6.9031616E2,9.170927E1,9.166455E1,1.6619754E2,2.4702072E0,1.0471191E0,0E0,2.5188675E0,2.0419006E1,1.299736E0,0E0,4.0844727E-1,6.233767E-1,3.4135993E0,6.944771E-1,3.6524205E0,2.7396088E0,7.039795E-1,1.1662762E0,0E0,0E0,0E0,0E0,0E0,0E0,0E0,0E0,0E0,0E0,0E0,0E0,0E0,0E0,0E0,0E0],"parents":[2147483647,0,0,1,1,2,2,3,3,4,4,5,5,7,7,8,8,9,9,11,11,12,12,13,13,14,14,15,15,16,16,17,17,18,18],"right_children":[2,4,6,8,10,12,-1,14,16,18,-1,20,22,24,26,28,30,32,34,-1,-1,-1,-1,-1,-1,-1,-1,-1,-1,-1,-1,-1,-1,-1,-1],"split_conditions":[1.934372E-1,2.4464622E0,2.4464622E0,-9.029239E-2,9.307924E0,6.2625594E0,-7.1186446E-2,-1.661529E0,-1.1996258E0,1.224002E0,4.285714E-2,7.580623E0,1.2979165E0,4.0156655E0,1.4586928E0,7.7336985E-1,7.6661277E0,6.9548926E0,5.2322394E-1,1.4904442E-1,4.285714E-2,-2.5544848E-9,8.571428E-2,-4.285715E-2,8.571428E-2,-7.2778575E-2,-2.5544848E-9,4.0191386E-2,-5.853659E-2,1.2752391E-1,1.0344825E-2,-7.3012054E-2,-2.5544848E-9,4.285714E-2,-4.2857148E-2],"split_indices":[28,27,27,27,24,3,0,28,28,2,0,12,4,12,2,0,20,16,0,0,0,0,0,0,0,0,0,0,0,0,0,0,0,0,0],"split_type":[0,0,0,0,0,0,0,0,0,0,0,0,0,0,0,0,0,0,0,0,0,0,0,0,0,0,0,0,0,0,0,0,0,0,0],"sum_hessian":[1.7106665E3,3.8088885E2,1.3297777E3,2.351111E2,1.4577777E2,1.3111111E3,1.8666666E1,1.0355555E2,1.3155554E2,1.4444444E2,1.3333333E0,1.3084443E3,2.6666665E0,2.4444443E1,7.911111E1,2.5777777E1,1.0577777E2,1.3866666E2,5.7777777E0,1.3071111E3,1.3333333E0,1.3333333E0,1.3333333E0,2.311111E1,1.3333333E0,7.777777E1,1.3333333E0,2.2222221E1,3.5555553E0,1.0355555E2,2.222222E0,1.3733333E2,1.3333333E0,1.3333333E0,4.444444E0],"tree_param":{"num_deleted":"0","num_feature":"29","num_nodes":"35","size_leaf_vector":"1"}},{"base_weights":[-4.9834475E-1,-7.0362663E-1,1.424446E0,3.7783332E-2,-7.249022E-1,1.436019E0,-2.5544848E-9,5.9999996E-1,-2.1352318E-1,-6.0409564E-1,-7.3901176E-1,5.660377E-1,1.4591765E0,9.1764706E-1,-6.1224528E-2,-3.1034487E-1,7.2413795E-2,-6.2111807E-1,6E-2,-7.4048275E-1,-3.2511625E-8,7.317073E-1,-2.5544848E-9,1.4651654E0,4.285714E-2,1.173913E-1,-1.2000003E-2,-5.454546E-2,6E-2,-3.918368E-2,6E-2,-6.319105E-2,1.0344825E-2,-7.433224E-2,-5.9340667E-2,4.285714E-2,-4.2857148E-2,9.6E-2,2.3999998E-2,1.4712563E-1,4.285714E-2],"categories":[],"categories_nodes":[],"categories_segments":[],"categories_sizes":[],"default_left":[0,0,0,0,0,0,0,0,0,0,0,0,0,0,0,0,0,0,0,0,0,0,0,0,0,0,0,0,0,0,0,0,0,0,0,0,0,0,0,0,0],"id":2,"left_children":[1,3,5,7,9,11,-1,13,15,17,19,21,23,25,27,29,-1,31,-1,33,35,37,-1,39,-1,-1,-1,-1,-1,-1,-1,-1,-1,-1,-1,-1,-1,-1,-1,-1,-1],"loss_changes":[6.766211E2,2.4433167E1,2.7273865E0,6.360515E0,2.1173096E0,2.4803162E0,0E0,2.9733496E0,3.0592713E0,3.709076E0,1.4592285E0,5.52232E-1,3.5479736E-1,2.6522765E0,2.070501E0,2.3864884E0,0E0,1.3243523E0,0E0,1.1846924E-1,8.5714287E-1,2.8097534E-1,0E0,3.66333E-1,0E0,0E0,0E0,0E0,0E0,0E0,0E0,0E0,0E0,0E0,0E0,0E0,0E0,0E0,0E0,0E0,0E0],"parents":[2147483647,0,0,1,1,2,2,3,3,4,4,5,5,7,7,8,8,9,9,10,10,11,11,12,12,13,13,14,14,15,15,17,17,19,19,20,20,21,21,23,23],"right_children":[2,4,6,8,10,12,-1,14,16,18,20,22,24,26,28,30,-1,32,-1,34,36,38,-1,40,-1,-1,-1,-1,-1,-1,-1,-1,-1,-1,-1,-1,-1,-1,-1,-1,-1],"split_conditions":[2.4464622E0,-1.8195144E0,9.307924E0,-5.2721543E0,1.4652178E-1,-5.897652E0,-2.5544848E-9,5.2650195E-1,3.053908E0,6.5948415E0,6.2625594E0,2.284118E0,5.3832016E0,2.3569787E0,1.7963446E0,3.5925052E0,7.2413795E-2,5.5636897E0,6E-2,3.5573597E0,1.2979165E0,7.27542E-1,-2.5544848E-9,6.9388857E0,4.285714E-2,1.173913E-1,-1.2000003E-2,-5.454546E-2,6E-2,-3.918368E-2,6E-2,-6.319105E-2,1.0344825E-2,-7.433224E-2,-5.9340667E-2,4.285714E-2,-4.2857148E-2,9.6E-2,2.3999998E-2,1.4712563E-1,4.285714E-2],"split_indices":[27,28,24,28,28,28,0,4,14,17,3,11,0,9,5,17,0,21,0,13,4,7,0,16,0,0,0,0,0,0,0,0,0,0,0,0,0,0,0,0,0],"split_type":[0,0,0,0,0,0,0,0,0,0,0,0,0,0,0,0,0,0,0,0,0,0,0,0,0,0,0,0,0,0,0,0,0,0,0,0,0,0,0,0,0],"sum_hessian":[1.7106665E3,1.5462222E3,1.6444443E2,4.3111107E1,1.503111E3,1.631111E2,1.3333333E0,1.2888888E1,3.0222221E1,1.6177777E2,1.3413333E3,4.8888884E0,1.5822221E2,8.444444E0,4.444444E0,2.7999998E1,2.222222E0,1.5999998E2,1.7777777E0,1.3386666E3,2.6666665E0,3.5555553E0,1.3333333E0,1.5688889E2,1.3333333E0,6.666666E0,1.7777777E0,2.6666665E0,1.7777777E0,2.6222221E1,1.7777777E0,1.5777777E2,2.222222E0,1.3093333E3,2.9333332E1,1.3333333E0,1.3333333E0,1.7777777E0,1.7777777E0,1.5555554E2,1.3333333E0],"tree_param":{"num_deleted":"0","num_feature":"29","num_nodes":"41","size_leaf_vector":"1"}},{"base_weights":[-5.91614E-1,1.0651932E0,-7.092379E-1,3.892713E-1,1.2315471E0,-4.4775903E-1,-7.159399E-1,6.881798E-1,8.792918E-2,1.2585509E0,7.052483E-1,-5.367339E-1,4.7057055E-2,-7.1658164E-2,7.3919055E-4,8.66667E-1,1.5860243E-1,-1.0786408E-1,6.815236E-2,1.2684172E0,3.9297838E-2,-1.4245695E-2,1.06095135E-1,-5.773805E-1,-1.3397542E-1,-5.518006E-2,6.157874E-1,1.1170433E-1,3.5496E-2,4.2998064E-2,-1.25310095E-2,-5.6033295E-2,1.5876135E-2,1.278303E-1,4.0055696E-2,-6.0406953E-2,2.7092812E-3,2.4614427E-2,-4.684435E-2,8.963323E-2,5.939947E-4],"categories":[],"categories_nodes":[],"categories_segments":[],"categories_sizes":[],"default_left":[0,0,0,0,0,0,0,0,0,0,0,0,0,0,0,0,0,0,0,0,0,0,0,0,0,0,0,0,0,0,0,0,0,0,0,0,0,0,0,0,0],"id":3,"left_children":[1,3,5,7,9,11,13,15,17,19,21,23,25,-1,-1,27,29,31,-1,33,-1,-1,-1,35,37,-1,39,-1,-1,-1,-1,-1,-1,-1,-1,-1,-1,-1,-1,-1,-1],"loss_changes":[3.225874E2,1.187468E1,2.3827515E0,2.0257912E0,3.5891724E-1,1.8399963E0,7.026367E-1,9.478121E-1,1.547276E0,2.03125E-1,2.1277313E0,4.959135E-1,2.7925775E0,0E0,0E0,6.7499685E-1,3.7118134E-1,1.3434651E0,0E0,1.8099976E-1,0E0,0E0,0E0,5.2464294E-1,6.889778E-1,0E0,7.07489E-1,0E0,0E0,0E0,0E0,0E0,0E0,0E0,0E0,0E0,0E0,0E0,0E0,0E0,0E0],"parents":[2147483647,0,0,1,1,2,2,3,3,4,4,5,5,6,6,7,7,8,8,9,9,10,10,11,11,12,12,15,15,16,16,17,17,19,19,23,23,24,24,26,26],"right_children":[2,4,6,8,10,12,14,16,18,20,22,24,26,-1,-1,28,30,32,-1,34,-1,-1,-1,36,38,-1,40,-1,-1,-1,-1,-1,-1,-1,-1,-1,-1,-1,-1,-1,-1],"split_conditions":[-9.029239E-2,-1.8195144E0,-2.4009678E0,-7.441955E-2,3.1617327E0,7.7336985E-1,7.715172E0,5.0547853E-2,2.047012E0,4.819098E0,-8.4213257E-1,3.6926525E0,-4.145555E0,-7.1658164E-2,7.3919055E-4,7.9953444E-1,1.4941598E-1,-5.897652E0,6.815236E-2,6.442525E0,3.9297838E-2,-1.4245695E-2,1.06095135E-1,4.1578145E0,5.0547853E-2,-5.518006E-2,1.4880724E0,1.1170433E-1,3.5496E-2,4.2998064E-2,-1.25310095E-2,-5.6033295E-2,1.5876135E-2,1.278303E-1,4.0055696E-2,-6.0406953E-2,2.7092812E-3,2.4614427E-2,-4.684435E-2,8.963323E-2,5.939947E-4],"split_indices":[27,28,28,1,15,0,12,2,14,10,28,14,28,0,0,7,7,28,0,17,0,0,0,8,2,0,0,0,0,0,0,0,0,0,0,0,0,0,0,0,0],"split_type":[0,0,0,0,0,0,0,0,0,0,0,0,0,0,0,0,0,0,0,0,0,0,0,0,0,0,0,0,0,0,0,0,0,0,0,0,0,0,0,0,0],"sum_hessian":[1.650436E3,1.0887044E2,1.5415657E3,2.2162169E1,8.670827E1,4.0219513E1,1.5013461E3,1.048155E1,1.1680618E1,8.115309E1,5.5551777E0,3.4017902E1,6.2016106E0,1.5000247E3,1.321446E0,7.3633146E0,3.1182353E0,9.398779E0,2.2818396E0,7.977831E1,1.3747764E0,1.8191998E0,3.7359781E0,3.0505692E1,3.5122118E0,3.035295E0,3.1663158E0,4.149839E0,3.2134757E0,1.331263E0,1.7869724E0,3.0764337E0,6.322345E0,7.841219E1,1.3661234E0,2.921638E1,1.2893113E0,1.7675178E0,1.7446941E0,1.8469217E0,1.3193942E0],"tree_param":{"num_deleted":"0","num_feature":"29","num_nodes":"41","size_leaf_vector":"1"}},{"base_weights":[9.8344964E-1,-6.56847E-2,1.2637461E0,2.8714547E-1,-6.623786E-1,1.28923E0,-6.849434E-2,-5.999338E-1,9.284004E-1,-6.7563105E-1,4.0029716E-2,1.2903988E0,5.0698966E-1,-3.059656E-1,-6.874767E-1,3.5123688E-1,1.1340616E0,-6.953706E-1,-1.7758714E-1,1.2909967E-1,3.9530303E-2,8.1320204E-2,-1.6593294E-3,-4.0515E-2,8.010777E-2,-7.000039E-2,2.6227634E-3,1.9156904E-3,6.0930192E-2,1.1584699E-1,-1.386973E-2,-7.0253514E-2,2.1297035E-3,-4.096672E-2,4.3096032E-2],"categories":[],"categories_nodes":[],"categories_segments":[],"categories_sizes":[],"default_left":[0,0,0,0,0,0,0,0,0,0,0,0,0,0,0,0,0,0,0,0,0,0,0,0,0,0,0,0,0,0,0,0,0,0,0],"id":4,"left_children":[1,3,5,7,9,11,-1,13,15,17,-1,19,21,23,25,27,29,31,33,-1,-1,-1,-1,-1,-1,-1,-1,-1,-1,-1,-1,-1,-1,-1,-1],"loss_changes":[5.2744934E2,7.999399E1,7.1166504E1,1.3645555E2,2.2583542E0,6.2353516E-1,0E0,2.3849068E0,1.6107773E1,1.2507935E0,0E0,2.3583984E-1,6.118473E-1,3.0632708E0,7.059288E-1,3.2432613E0,3.3317566E0,7.0360565E-1,1.1188723E0,0E0,0E0,0E0,0E0,0E0,0E0,0E0,0E0,0E0,0E0,0E0,0E0,0E0,0E0,0E0,0E0],"parents":[2147483647,0,0,1,1,2,2,3,3,4,4,5,5,7,7,8,8,9,9,11,11,12,12,13,13,14,14,15,15,16,16,17,17,18,18],"right_children":[2,4,6,8,10,12,-1,14,16,18,-1,20,22,24,26,28,30,32,34,-1,-1,-1,-1,-1,-1,-1,-1,-1,-1,-1,-1,-1,-1,-1,-1],"split_conditions":[1.934372E-1,2.4464622E0,2.4464622E0,-9.029239E-2,9.307924E0,6.2625594E0,-6.849434E-2,-1.661529E0,-6.8933463E-1,1.224002E0,4.0029716E-2,7.580623E0,2.0999372E0,4.0156655E0,6.7404275E0,-2.833735E0,7.6661277E0,8.271813E0,1.4796433E0,1.2909967E-1,3.9530303E-2,8.1320204E-2,-1.6593294E-3,-4.0515E-2,8.010777E-2,-7.000039E-2,2.6227634E-3,1.9156904E-3,6.0930192E-2,1.1584699E-1,-1.386973E-2,-7.0253514E-2,2.1297035E-3,-4.096672E-2,4.3096032E-2],"split_indices":[28,27,27,27,24,3,0,28,28,2,0,12,9,12,26,28,20,23,8,0,0,0,0,0,0,0,0,0,0,0,0,0,0,0,0],"split_type":[0,0,0,0,0,0,0,0,0,0,0,0,0,0,0,0,0,0,0,0,0,0,0,0,0,0,0,0,0,0,0,0,0,0,0],"sum_hessian":[1.7923446E3,3.7805844E2,1.4142863E3,2.379031E2,1.4015535E2,1.3963638E3,1.7922443E1,9.984587E1,1.3805724E2,1.3878876E2,1.3665903E0,1.3936317E3,2.7320693E0,2.394244E1,7.5903435E1,3.6981346E1,1.0107588E2,1.3311658E2,5.672169E0,1.3922595E3,1.3721642E0,1.3748522E0,1.3572171E0,2.2555618E1,1.3868213E0,7.4613E1,1.290434E0,1.664136E1,2.0339989E1,9.9262085E1,1.8138014E0,1.318185E2,1.2980802E0,4.342785E0,1.3293841E0],"tree_param":{"num_deleted":"0","num_feature":"29","num_nodes":"35","size_leaf_vector":"1"}},{"base_weights":[-4.7350484E-1,-6.755518E-1,1.2394263E0,3.7106987E-2,-6.968448E-1,1.2489963E0,-3.6339473E-4,5.533441E-1,-2.0101096E-1,-5.76786E-1,-7.10987E-1,5.1265967E-1,1.2678715E0,8.4229374E-1,-6.388264E-2,-2.9558703E-1,6.870347E-2,-5.938826E-1,5.755348E-2,-7.124535E-1,-5.3193867E-3,6.669644E-1,-1.2501002E-3,1.2732153E0,3.6668714E-2,1.07422724E-1,-1.2264868E-2,-5.3702768E-2,5.687465E-2,-3.7581425E-2,5.7525665E-2,-6.047687E-2,1.1296945E-2,-7.153393E-2,-5.6433506E-2,-4.2729717E-2,4.154871E-2,8.909189E-2,2.0553766E-2,1.2786278E-1,3.6764544E-2],"categories":[],"categories_nodes":[],"categories_segments":[],"categories_sizes":[],"default_left":[0,0,0,0,0,0,0,0,0,0,0,0,0,0,0,0,0,0,0,0,0,0,0,0,0,0,0,0,0,0,0,0,0,0,0,0,0,0,0,0,0],"id":5,"left_children":[1,3,5,7,9,11,-1,13,15,17,19,21,23,25,27,29,-1,31,-1,33,35,37,-1,39,-1,-1,-1,-1,-1,-1,-1,-1,-1,-1,-1,-1,-1,-1,-1,-1,-1],"loss_changes":[5.758137E2,2.2585938E1,2.0939026E0,5.5298758E0,2.0410767E0,1.772522E0,0E0,2.5829377E0,2.7982955E0,3.4432487E0,1.3282471E0,4.97396E-1,3.482666E-1,2.309258E0,1.9371529E0,2.2160861E0,0E0,1.26577E0,0E0,1.4538574E-1,8.3046687E-1,3.0081654E-1,0E0,3.5266113E-1,0E0,0E0,0E0,0E0,0E0,0E0,0E0,0E0,0E0,0E0,0E0,0E0,0E0,0E0,0E0,0E0,0E0],"parents":[2147483647,0,0,1,1,2,2,3,3,4,4,5,5,7,7,8,8,9,9,10,10,11,11,12,12,13,13,14,14,15,15,17,17,19,19,20,20,21,21,23,23],"right_children":[2,4,6,8,10,12,-1,14,16,18,20,22,24,26,28,30,-1,32,-1,34,36,38,-1,40,-1,-1,-1,-1,-1,-1,-1,-1,-1,-1,-1,-1,-1,-1,-1,-1,-1],"split_conditions":[2.4464622E0,-1.8195144E0,9.307924E0,-5.2721543E0,1.4652178E-1,-5.897652E0,-3.6339473E-4,5.2650195E-1,3.053908E0,6.5948415E0,6.2625594E0,2.284118E0,2.8668377E0,2.3569787E0,1.7963446E0,3.5925052E0,6.870347E-2,5.5636897E0,5.755348E-2,3.5573597E0,2.0999372E0,-6.4597926E0,-1.2501002E-3,8.271813E0,3.6668714E-2,1.07422724E-1,-1.2264868E-2,-5.3702768E-2,5.687465E-2,-3.7581425E-2,5.7525665E-2,-6.047687E-2,1.1296945E-2,-7.153393E-2,-5.6433506E-2,-4.2729717E-2,4.154871E-2,8.909189E-2,2.0553766E-2,1.2786278E-1,3.6764544E-2],"split_indices":[27,28,24,28,28,28,0,4,14,17,3,11,2,9,5,17,0,21,0,13,9,28,0,23,0,0,0,0,0,0,0,0,0,0,0,0,0,0,0,0,0],"split_type":[0,0,0,0,0,0,0,0,0,0,0,0,0,0,0,0,0,0,0,0,0,0,0,0,0,0,0,0,0,0,0,0,0,0,0,0,0,0,0,0,0],"sum_hessian":[1.6603375E3,1.4856991E3,1.7463838E2,4.308081E1,1.4426183E3,1.7329944E2,1.3389504E0,1.3180914E1,2.9899899E1,1.564269E2,1.2861914E3,5.035163E0,1.6826428E2,8.729587E0,4.4513273E0,2.7625008E1,2.2748895E0,1.546175E2,1.8093995E0,1.2835144E3,2.6770108E0,3.682992E0,1.352171E0,1.66862E2,1.4022696E0,6.9466376E0,1.7829487E0,2.6331246E0,1.818203E0,2.5815208E1,1.8097997E0,1.5241461E2,2.2028856E0,1.255229E3,2.828536E1,1.3289437E0,1.348067E0,1.8528941E0,1.8300978E0,1.6546112E2,1.4008898E0],"tree_param":{"num_deleted":"0","num_feature":"29","num_nodes":"41","size_leaf_vector":"1"}},{"base_weights":[-5.6777716E-1,9.5658374E-1,-6.846478E-1,3.6222774E-1,1.0992217E0,-4.7696155E-1,-6.932432E-1,4.4743273E-1,-4.5553196E-2,1.1229637E0,6.3460493E-1,-5.493656E-1,1.9273289E-2,-6.939063E-2,9.09004E-4,5.663913E-1,-2.845696E-1,1.1316463E0,3.564882E-2,-1.5377774E-2,9.6347444E-2,-5.771819E-1,-1.06613055E-1,6.643532E-1,-5.7072718E-2,1.29222665E-2,7.91552E-2,-4.347718E-2,-1.396528E-3,1.1400534E-1,3.7108973E-2,-4.1314017E-2,-6.8307005E-2,2.8697789E-2,-4.5854893E-2,-7.736133E-4,9.355171E-2],"categories":[],"categories_nodes":[],"categories_segments":[],"categories_sizes":[],"default_left":[0,0,0,0,0,0,0,0,0,0,0,0,0,0,0,0,0,0,0,0,0,0,0,0,0,0,0,0,0,0,0,0,0,0,0,0,0],"id":6,"left_children":[1,3,5,7,9,11,13,15,-1,17,19,21,23,-1,-1,25,27,29,-1,-1,-1,31,33,35,-1,-1,-1,-1,-1,-1,-1,-1,-1,-1,-1,-1,-1],"loss_changes":[2.8293124E2,9.202492E0,2.2974243E0,1.8348925E0,2.8936768E-1,2.227909E0,6.636963E-1,2.0511665E0,0E0,1.6307068E-1,1.8893294E0,6.021557E-1,3.737551E0,0E0,0E0,1.7684183E0,1.4430565E-1,1.1217499E-1,0E0,0E0,0E0,5.9459114E-1,7.427492E-1,8.596642E-1,0E0,0E0,0E0,0E0,0E0,0E0,0E0,0E0,0E0,0E0,0E0,0E0,0E0],"parents":[2147483647,0,0,1,1,2,2,3,3,4,4,5,5,6,6,7,7,9,9,10,10,11,11,12,12,15,15,16,16,17,17,21,21,22,22,23,23],"right_children":[2,4,6,8,10,12,14,16,-1,18,20,22,24,-1,-1,26,28,30,-1,-1,-1,32,34,36,-1,-1,-1,-1,-1,-1,-1,-1,-1,-1,-1,-1,-1],"split_conditions":[-9.029239E-2,-1.8195144E0,-1.1996258E0,3.0094748E0,3.1617327E0,7.7336985E-1,7.692942E0,2.4322941E0,-4.5553196E-2,4.819098E0,-8.4213257E-1,-1.3734987E0,2.4464622E0,-6.939063E-2,9.09004E-4,-5.2721543E0,2.2932129E-2,6.442525E0,3.564882E-2,-1.5377774E-2,9.6347444E-2,-3.7624865E0,-5.970568E-1,-1.3043319E0,-5.7072718E-2,1.29222665E-2,7.91552E-2,-4.347718E-2,-1.396528E-3,1.1400534E-1,3.7108973E-2,-4.1314017E-2,-6.8307005E-2,2.8697789E-2,-4.5854893E-2,-7.736133E-4,9.355171E-2],"split_indices":[27,28,28,12,15,0,12,9,0,10,28,28,27,0,0,28,0,17,0,0,0,28,7,7,0,0,0,0,0,0,0,0,0,0,0,0,0],"split_type":[0,0,0,0,0,0,0,0,0,0,0,0,0,0,0,0,0,0,0,0,0,0,0,0,0,0,0,0,0,0,0,0,0,0,0,0,0],"sum_hessian":[1.5834598E3,1.1224513E2,1.4712147E3,2.2408983E1,8.983615E1,6.0713364E1,1.4105013E3,2.0704563E1,1.7044191E0,8.412062E1,5.7155275E0,5.288938E1,7.8239856E0,1.4091829E3,1.3184531E0,1.8004822E1,2.6997414E0,8.2707275E1,1.413343E0,1.8391143E0,3.8764133E0,4.94773E1,3.4120793E0,3.6773334E0,4.1466517E0,6.655844E0,1.1348978E1,1.3459728E0,1.3537686E0,8.130952E1,1.397759E0,2.133179E1,2.8145508E1,1.6978477E0,1.7142316E0,1.3364257E0,2.3409078E0],"tree_param":{"num_deleted":"0","num_feature":"29","num_nodes":"37","size_leaf_vector":"1"}},{"base_weights":[8.829362E-1,-6.2380925E-2,1.1230571E0,2.6233196E-1,-6.371346E-1,1.1446012E0,-6.610972E-2,-5.745859E-1,8.261374E-1,-6.504918E-1,3.747249E-2,1.145568E0,4.7269136E-1,-2.869084E-1,-6.6248596E-1,3.1003523E-1,1.006862E0,-6.705428E-1,-1.601721E-1,1.1460834E-1,3.6085825E-2,-3.180061E-3,7.7371344E-2,-3.8472943E-2,7.621727E-2,-6.752198E-2,3.0910843E-3,1.1125383E-3,5.372988E-2,1.0286845E-1,-1.494276E-2,-6.7776464E-2,1.843473E-3,-3.916256E-2,4.2848825E-2],"categories":[],"categories_nodes":[],"categories_segments":[],"categories_sizes":[],"default_left":[0,0,0,0,0,0,0,0,0,0,0,0,0,0,0,0,0,0,0,0,0,0,0,0,0,0,0,0,0,0,0,0,0,0,0],"id":7,"left_children":[1,3,5,7,9,11,-1,13,15,17,-1,19,21,23,25,27,29,31,33,-1,-1,-1,-1,-1,-1,-1,-1,-1,-1,-1,-1,-1,-1,-1,-1],"loss_changes":[4.1748938E2,6.986198E1,5.712549E1,1.13406296E2,2.0697823E0,4.000244E-1,0E0,2.260828E0,1.3063972E1,1.207161E0,0E0,1.7138672E-1,5.994226E-1,2.802133E0,6.696358E-1,2.6188002E0,2.8226318E0,6.500969E-1,1.0625349E0,0E0,0E0,0E0,0E0,0E0,0E0,0E0,0E0,0E0,0E0,0E0,0E0,0E0,0E0,0E0,0E0],"parents":[2147483647,0,0,1,1,2,2,3,3,4,4,5,5,7,7,8,8,9,9,11,11,12,12,13,13,14,14,15,15,16,16,17,17,18,18],"right_children":[2,4,6,8,10,12,-1,14,16,18,-1,20,22,24,26,28,30,32,34,-1,-1,-1,-1,-1,-1,-1,-1,-1,-1,-1,-1,-1,-1,-1,-1],"split_conditions":[1.934372E-1,2.4464622E0,2.4464622E0,-9.029239E-2,9.307924E0,6.2625594E0,-6.610972E-2,-1.661529E0,-6.8933463E-1,1.224002E0,3.747249E-2,7.580623E0,2.6258537E-1,4.0156655E0,6.7404275E0,-2.833735E0,7.6661277E0,8.271813E0,2.8518834E0,1.1460834E-1,3.6085825E-2,-3.180061E-3,7.7371344E-2,-3.8472943E-2,7.621727E-2,-6.752198E-2,3.0910843E-3,1.1125383E-3,5.372988E-2,1.0286845E-1,-1.494276E-2,-6.7776464E-2,1.843473E-3,-3.916256E-2,4.2848825E-2],"split_indices":[28,27,27,27,24,3,0,28,28,2,0,12,28,12,26,28,20,23,10,0,0,0,0,0,0,0,0,0,0,0,0,0,0,0,0],"split_type":[0,0,0,0,0,0,0,0,0,0,0,0,0,0,0,0,0,0,0,0,0,0,0,0,0,0,0,0,0,0,0,0,0,0,0],"sum_hessian":[1.8379288E3,3.724387E2,1.4654902E3,2.3833342E2,1.3410529E2,1.4483594E3,1.7130789E1,9.592394E1,1.4240947E2,1.3271056E2,1.394728E0,1.4455743E3,2.7851038E0,2.3447952E1,7.247599E1,3.76387E1,1.04770775E2,1.2714363E2,5.5669317E0,1.4441655E3,1.4087915E0,1.3750216E0,1.4100823E0,2.2027298E1,1.4206544E0,7.119475E1,1.2812357E0,1.6709879E1,2.092882E1,1.0293839E2,1.8323816E0,1.25840836E2,1.302789E0,4.2360783E0,1.330853E0],"tree_param":{"num_deleted":"0","num_feature":"29","num_nodes":"35","size_leaf_vector":"1"}},{"base_weights":[-4.517797E-1,-6.5048164E-1,1.1029636E0,3.4456484E-2,-6.718747E-1,1.1112436E0,-6.213785E-4,5.113433E-1,-1.9114646E-1,-5.5148375E-1,-6.8620896E-1,4.677835E-1,1.127441E0,7.7769625E-1,-6.784432E-2,-2.8313008E-1,6.4800054E-2,-5.687017E-1,5.529833E-2,-6.87683E-1,-9.437054E-3,6.132959E-1,-2.3424602E-3,1.1320772E0,3.3286836E-2,9.888383E-2,-1.2206402E-2,-5.2998055E-2,5.3943176E-2,-3.613728E-2,5.4104418E-2,-5.796962E-2,1.18540665E-2,-6.9065064E-2,-5.3705674E-2,4.0388618E-2,-4.2493116E-2,8.234174E-2,1.8429006E-2,1.13659196E-1,3.43615E-2],"categories":[],"categories_nodes":[],"categories_segments":[],"categories_sizes":[],"default_left":[0,0,0,0,0,0,0,0,0,0,0,0,0,0,0,0,0,0,0,0,0,0,0,0,0,0,0,0,0,0,0,0,0,0,0,0,0,0,0,0,0],"id":8,"left_children":[1,3,5,7,9,11,-1,13,15,17,19,21,23,25,27,29,-1,31,-1,33,35,37,-1,39,-1,-1,-1,-1,-1,-1,-1,-1,-1,-1,-1,-1,-1,-1,-1,-1,-1],"loss_changes":[4.958195E2,2.0854431E1,1.6782532E0,4.8325973E0,2.0007935E0,1.3552856E0,0E0,2.2750986E0,2.5457134E0,3.2007332E0,1.2183838E0,4.535638E-1,2.6965332E-1,2.010591E0,1.8175535E0,2.0189486E0,0E0,1.2016373E0,0E0,1.7675781E-1,8.0402434E-1,2.7888036E-1,0E0,2.2901917E-1,0E0,0E0,0E0,0E0,0E0,0E0,0E0,0E0,0E0,0E0,0E0,0E0,0E0,0E0,0E0,0E0,0E0],"parents":[2147483647,0,0,1,1,2,2,3,3,4,4,5,5,7,7,8,8,9,9,10,10,11,11,12,12,13,13,14,14,15,15,17,17,19,19,20,20,21,21,23,23],"right_children":[2,4,6,8,10,12,-1,14,16,18,20,22,24,26,28,30,-1,32,-1,34,36,38,-1,40,-1,-1,-1,-1,-1,-1,-1,-1,-1,-1,-1,-1,-1,-1,-1,-1,-1],"split_conditions":[2.4464622E0,-1.8195144E0,9.307924E0,-5.2721543E0,1.4652178E-1,-5.897652E0,-6.213785E-4,5.2650195E-1,3.053908E0,6.5948415E0,6.2625594E0,2.284118E0,5.3832016E0,2.3569787E0,1.7963446E0,3.5925052E0,6.4800054E-2,5.5636897E0,5.529833E-2,3.5573597E0,2.6258537E-1,3.6926525E0,-2.3424602E-3,6.9388857E0,3.3286836E-2,9.888383E-2,-1.2206402E-2,-5.2998055E-2,5.3943176E-2,-3.613728E-2,5.4104418E-2,-5.796962E-2,1.18540665E-2,-6.9065064E-2,-5.3705674E-2,4.0388618E-2,-4.2493116E-2,8.234174E-2,1.8429006E-2,1.13659196E-1,3.43615E-2],"split_indices":[27,28,24,28,28,28,0,4,14,17,3,11,0,9,5,17,0,21,0,13,28,14,0,16,0,0,0,0,0,0,0,0,0,0,0,0,0,0,0,0,0],"split_type":[0,0,0,0,0,0,0,0,0,0,0,0,0,0,0,0,0,0,0,0,0,0,0,0,0,0,0,0,0,0,0,0,0,0,0,0,0,0,0,0,0],"sum_hessian":[1.6016322E3,1.4206495E3,1.8098265E2,4.3009525E1,1.37764E3,1.7963976E2,1.3428919E0,1.3405654E1,2.960387E1,1.5077544E2,1.2268645E3,5.144612E0,1.7449515E2,8.94798E0,4.4576745E0,2.7276533E1,2.327337E0,1.4893867E2,1.8367637E0,1.2241821E3,2.6824558E0,3.7771475E0,1.3674643E0,1.7306061E2,1.4345386E0,7.16711E0,1.7808698E0,2.6036117E0,1.8540626E0,2.542441E1,1.8521241E0,1.467475E2,2.191179E0,1.1970133E3,2.7168823E1,1.3587462E0,1.3237096E0,1.9182515E0,1.858896E0,1.7163632E2,1.4242955E0],"tree_param":{"num_deleted":"0","num_feature":"29","num_nodes":"41","size_leaf_vector":"1"}},{"base_weights":[-5.467736E-1,8.6968094E-1,-6.628909E-1,3.3356783E-1,9.972736E-1,-4.563124E-1,-6.7161417E-1,5.9736097E-1,6.312967E-2,1.0055915E0,2.833804E-2,-5.285499E-1,2.8143134E-2,-6.722928E-2,1.0814602E-3,6.817863E-1,-2.6975705E-3,-5.2465178E-2,2.364904E-1,1.0138289E0,2.973763E-2,-5.5648875E-1,-9.644841E-2,6.3510966E-1,-5.5218358E-2,7.534808E-2,2.1574367E-2,4.320302E-2,-4.7533784E-2,1.02210335E-1,3.019678E-2,-3.9303128E-2,-6.637298E-2,2.856541E-2,-4.4614088E-2,-3.178814E-4,8.855795E-2],"categories":[],"categories_nodes":[],"categories_segments":[],"categories_sizes":[],"default_left":[0,0,0,0,0,0,0,0,0,0,0,0,0,0,0,0,0,0,0,0,0,0,0,0,0,0,0,0,0,0,0,0,0,0,0,0,0],"id":9,"left_children":[1,3,5,7,9,11,13,15,17,19,-1,21,23,-1,-1,25,-1,-1,27,29,-1,31,33,35,-1,-1,-1,-1,-1,-1,-1,-1,-1,-1,-1,-1,-1],"loss_changes":[2.493638E2,7.5364075E0,2.213745E0,1.6471744E0,2.6382446E-1,2.1070843E0,6.277466E-1,6.423502E-1,1.426352E0,2.2917938E-1,0E0,5.7502556E-1,3.4177084E0,0E0,0E0,1.871252E-1,0E0,0E0,1.6750205E0,2.18544E-1,0E0,5.928993E-1,7.116709E-1,7.575692E-1,0E0,0E0,0E0,0E0,0E0,0E0,0E0,0E0,0E0,0E0,0E0,0E0,0E0],"parents":[2147483647,0,0,1,1,2,2,3,3,4,4,5,5,6,6,7,7,8,8,9,9,11,11,12,12,15,15,18,18,19,19,21,21,22,22,23,23],"right_children":[2,4,6,8,10,12,14,16,18,20,-1,22,24,-1,-1,26,-1,-1,28,30,-1,32,34,36,-1,-1,-1,-1,-1,-1,-1,-1,-1,-1,-1,-1,-1],"split_conditions":[-9.029239E-2,-1.8195144E0,-1.1996258E0,-7.441955E-2,7.96633E0,7.7336985E-1,7.692942E0,2.420575E0,5.8667257E-2,5.1161327E0,2.833804E-2,-1.3734987E0,2.4464622E0,-6.722928E-2,1.0814602E-3,2.4424188E0,-2.6975705E-3,-5.2465178E-2,3.5925052E0,6.7404275E0,2.973763E-2,-3.7624865E0,-5.970568E-1,-1.3043319E0,-5.5218358E-2,7.534808E-2,2.1574367E-2,4.320302E-2,-4.7533784E-2,1.02210335E-1,3.019678E-2,-3.9303128E-2,-6.637298E-2,2.856541E-2,-4.4614088E-2,-3.178814E-4,8.855795E-2],"split_indices":[27,28,28,1,24,0,12,9,0,10,0,28,27,0,0,8,0,0,17,26,0,28,7,7,0,0,0,0,0,0,0,0,0,0,0,0,0],"split_type":[0,0,0,0,0,0,0,0,0,0,0,0,0,0,0,0,0,0,0,0,0,0,0,0,0,0,0,0,0,0,0,0,0,0,0,0,0],"sum_hessian":[1.5116151E3,1.1403782E2,1.3975773E3,2.2617779E1,9.142004E1,5.878446E1,1.3387928E3,1.08376045E1,1.1780174E1,8.996324E1,1.4567947E0,5.1077267E1,7.7071905E0,1.3374777E3,1.3151264E0,9.46561E0,1.3719952E0,2.2215674E0,9.558607E0,8.850233E1,1.4609168E0,4.7704895E1,3.3723698E0,3.7209895E0,3.986201E0,7.669062E0,1.7965478E0,7.807069E0,1.7515382E0,8.705461E1,1.4477181E0,2.0747055E1,2.6957842E1,1.6990151E0,1.6733546E0,1.3268923E0,2.394097E0],"tree_param":{"num_deleted":"0","num_feature":"29","num_nodes":"37","size_leaf_vector":"1"}},{"base_weights":[8.049068E-1,-5.9420533E-2,1.0164311E0,2.4155861E-1,-6.1436564E-1,1.0351797E0,-6.394457E-2,-5.5119133E-1,7.44343E-1,-6.561953E-1,-2.2188726E-1,1.03602E0,4.4183913E-1,-2.6769143E-1,-6.4023215E-1,2.7576306E-1,9.0732956E-1,-6.6421054E-2,-1.38024045E-2,4.2462844E-1,-4.424722E-1,1.0364789E-1,3.336193E-2,-3.3266433E-3,7.224017E-2,-3.6349062E-2,7.172921E-2,-6.66657E-2,-2.0646371E-2,3.669263E-2,-3.2551173E-2,9.274351E-2,-1.591656E-2,6.329489E-2,-1.3641434E-4,-6.059115E-4,-5.9675623E-2],"categories":[],"categories_nodes":[],"categories_segments":[],"categories_sizes":[],"default_left":[0,0,0,0,0,0,0,0,0,0,0,0,0,0,0,0,0,0,0,0,0,0,0,0,0,0,0,0,0,0,0,0,0,0,0,0,0],"id":10,"left_children":[1,3,5,7,9,11,-1,13,15,17,19,21,23,25,27,29,31,-1,-1,33,35,-1,-1,-1,-1,-1,-1,-1,-1,-1,-1,-1,-1,-1,-1,-1,-1],"loss_changes":[3.389796E2,6.1183056E1,4.689978E1,9.5129135E1,1.9685783E0,2.767334E-1,0E0,2.171175E0,1.0887863E1,3.8954163E-1,2.172182E0,1.2817383E-1,5.341487E-1,2.5158224E0,6.6358757E-1,2.26119E0,2.4583817E0,0E0,0E0,3.6026525E-1,7.278788E-1,0E0,0E0,0E0,0E0,0E0,0E0,0E0,0E0,0E0,0E0,0E0,0E0,0E0,0E0,0E0,0E0],"parents":[2147483647,0,0,1,1,2,2,3,3,4,4,5,5,7,7,8,8,9,9,10,10,11,11,12,12,13,13,14,14,15,15,16,16,19,19,20,20],"right_children":[2,4,6,8,10,12,-1,14,16,18,20,22,24,26,28,30,32,-1,-1,34,36,-1,-1,-1,-1,-1,-1,-1,-1,-1,-1,-1,-1,-1,-1,-1,-1],"split_conditions":[1.934372E-1,2.4464622E0,2.4464622E0,-9.029239E-2,2.731176E0,6.2625594E0,-6.394457E-2,-1.661529E0,-6.8933463E-1,3.7296455E0,-4.145555E0,7.580623E0,2.6258537E-1,4.0156655E0,3.1617327E0,3.0094748E0,7.6661277E0,-6.6421054E-2,-1.38024045E-2,2.2932129E-2,3.4759326E0,1.0364789E-1,3.336193E-2,-3.3266433E-3,7.224017E-2,-3.6349062E-2,7.172921E-2,-6.66657E-2,-2.0646371E-2,3.669263E-2,-3.2551173E-2,9.274351E-2,-1.591656E-2,6.329489E-2,-1.3641434E-4,-6.059115E-4,-5.9675623E-2],"split_indices":[28,27,27,27,10,3,0,28,28,23,28,12,28,12,15,12,20,0,0,0,10,0,0,0,0,0,0,0,0,0,0,0,0,0,0,0,0],"split_type":[0,0,0,0,0,0,0,0,0,0,0,0,0,0,0,0,0,0,0,0,0,0,0,0,0,0,0,0,0,0,0,0,0,0,0,0,0],"sum_hessian":[1.8527786E3,3.6441806E2,1.4883605E3,2.366394E2,1.2777865E2,1.4720679E3,1.629264E1,9.180011E1,1.448393E2,1.1486466E2,1.2913986E1,1.469241E3,2.8269248E0,2.2898672E1,6.8901436E1,3.807296E1,1.06766335E2,1.1283742E2,2.0272398E0,3.0499196E0,9.864067E0,1.4678066E3,1.4342767E0,1.3768284E0,1.4500964E0,2.1444002E1,1.4546691E0,6.4438965E1,4.462473E0,3.3398888E1,4.6740723E0,1.049188E2,1.8475322E0,1.7219999E0,1.3279198E0,2.8478403E0,7.016227E0],"tree_param":{"num_deleted":"0","num_feature":"29","num_nodes":"37","size_leaf_vector":"1"}},{"base_weights":[-4.3257892E-1,-6.279194E-1,9.985235E-1,3.400777E-2,-6.4956075E-1,1.0059267E0,-7.369911E-4,4.7589624E-1,-1.7982942E-1,-5.2759904E-1,-6.642633E-1,4.252786E-1,1.020574E0,7.2376585E-1,-7.0591845E-2,-2.6929078E-1,6.1314315E-2,-5.449884E-1,5.325811E-2,-6.65756E-1,-1.2620108E-2,5.616977E-1,-3.2042358E-3,1.0249555E0,2.9133648E-2,9.207668E-2,-1.244802E-2,-5.216179E-2,5.1125426E-2,-3.464404E-2,5.224036E-2,-6.467558E-2,-4.429105E-2,-6.688383E-2,-5.11338E-2,3.781515E-2,-4.1327965E-2,7.6914944E-2,1.5552043E-2,1.02913015E-1,3.081337E-2],"categories":[],"categories_nodes":[],"categories_segments":[],"categories_sizes":[],"default_left":[0,0,0,0,0,0,0,0,0,0,0,0,0,0,0,0,0,0,0,0,0,0,0,0,0,0,0,0,0,0,0,0,0,0,0,0,0,0,0,0,0],"id":11,"left_children":[1,3,5,7,9,11,-1,13,15,17,19,21,23,25,27,29,-1,31,-1,33,35,37,-1,39,-1,-1,-1,-1,-1,-1,-1,-1,-1,-1,-1,-1,-1,-1,-1,-1,-1],"loss_changes":[4.3041953E2,1.9409546E1,1.3853455E0,4.2241507E0,1.9995728E0,1.1282654E0,0E0,2.0229676E0,2.3104153E0,2.9792519E0,1.1255493E0,4.0692735E-1,2.715912E-1,1.8029842E0,1.6978301E0,1.8832464E0,0E0,1.2094154E0,0E0,2.1160889E-1,7.3299754E-1,2.8953433E-1,0E0,2.1252441E-1,0E0,0E0,0E0,0E0,0E0,0E0,0E0,0E0,0E0,0E0,0E0,0E0,0E0,0E0,0E0,0E0,0E0],"parents":[2147483647,0,0,1,1,2,2,3,3,4,4,5,5,7,7,8,8,9,9,10,10,11,11,12,12,13,13,14,14,15,15,17,17,19,19,20,20,21,21,23,23],"right_children":[2,4,6,8,10,12,-1,14,16,18,20,22,24,26,28,30,-1,32,-1,34,36,38,-1,40,-1,-1,-1,-1,-1,-1,-1,-1,-1,-1,-1,-1,-1,-1,-1,-1,-1],"split_conditions":[2.4464622E0,-1.8195144E0,9.307924E0,-5.2721543E0,1.4652178E-1,-5.897652E0,-7.369911E-4,5.2650195E-1,3.053908E0,6.5948415E0,6.2625594E0,2.284118E0,2.8668377E0,2.3569787E0,1.7963446E0,3.5925052E0,6.1314315E-2,-9.029239E-2,5.325811E-2,3.5573597E0,2.6258537E-1,-6.4597926E0,-3.2042358E-3,8.271813E0,2.9133648E-2,9.207668E-2,-1.244802E-2,-5.216179E-2,5.1125426E-2,-3.464404E-2,5.224036E-2,-6.467558E-2,-4.429105E-2,-6.688383E-2,-5.11338E-2,3.781515E-2,-4.1327965E-2,7.6914944E-2,1.5552043E-2,1.02913015E-1,3.081337E-2],"split_indices":[27,28,24,28,28,28,0,4,14,17,3,11,2,9,5,17,0,27,0,13,28,28,0,23,0,0,0,0,0,0,0,0,0,0,0,0,0,0,0,0,0],"split_type":[0,0,0,0,0,0,0,0,0,0,0,0,0,0,0,0,0,0,0,0,0,0,0,0,0,0,0,0,0,0,0,0,0,0,0,0,0,0,0,0,0],"sum_hessian":[1.5364324E3,1.3523962E3,1.8403607E2,4.279802E1,1.3095983E3,1.8269145E2,1.344626E0,1.3557117E1,2.9240904E1,1.4485669E2,1.1647416E3,5.2341084E0,1.7745734E2,9.103613E0,4.4535036E0,2.6869905E1,2.3709974E0,1.4299715E2,1.8595347E0,1.1620581E3,2.683519E0,3.855712E0,1.3783963E0,1.7599437E2,1.4629672E0,7.318445E0,1.7851682E0,2.5670958E0,1.8864079E0,2.4996439E1,1.8734663E0,6.89355E1,7.406165E1,1.13605E3,2.600799E1,1.3869627E0,1.2965562E0,1.9606807E0,1.8950315E0,1.7454219E2,1.4521858E0],"tree_param":{"num_deleted":"0","num_feature":"29","num_nodes":"41","size_leaf_vector":"1"}},{"base_weights":[-5.282081E-1,7.970499E-1,-6.4352614E-1,2.340527E-1,8.981793E-1,-4.3579715E-1,-6.5248597E-1,5.2813286E-1,-1.0025257E-1,9.1328675E-1,-7.2291098E-3,-5.0802404E-1,3.823258E-2,-6.53186E-2,1.3162857E-3,7.000913E-1,-3.95427E-2,4.8659347E-2,-3.0569634E-1,9.286929E-1,1.0752383E-2,-5.361372E-1,-8.69545E-2,6.105927E-1,-5.340132E-2,8.2107045E-2,-1.273273E-4,-6.1607875E-2,1.044865E-2,9.359135E-2,2.8101726E-2,-3.7126053E-2,-6.4618886E-2,2.8409062E-2,-4.345595E-2,8.412313E-2,3.9408277E-4],"categories":[],"categories_nodes":[],"categories_segments":[],"categories_sizes":[],"default_left":[0,0,0,0,0,0,0,0,0,0,0,0,0,0,0,0,0,0,0,0,0,0,0,0,0,0,0,0,0,0,0,0,0,0,0,0,0],"id":12,"left_children":[1,3,5,7,9,11,13,15,17,19,-1,21,23,-1,-1,25,-1,-1,27,29,-1,31,33,35,-1,-1,-1,-1,-1,-1,-1,-1,-1,-1,-1,-1,-1],"loss_changes":[2.2018967E2,6.366562E0,2.1778564E0,1.9151891E0,1.4965439E0,1.9953537E0,5.986328E-1,1.9025881E0,1.3188485E0,1.0936966E0,0E0,5.470514E-1,3.1299887E0,0E0,0E0,7.639327E-1,0E0,0E0,1.0577712E0,1.7758942E-1,0E0,6.0962296E-1,6.8223894E-1,6.6080534E-1,0E0,0E0,0E0,0E0,0E0,0E0,0E0,0E0,0E0,0E0,0E0,0E0,0E0],"parents":[2147483647,0,0,1,1,2,2,3,3,4,4,5,5,6,6,7,7,8,8,9,9,11,11,12,12,15,15,18,18,19,19,21,21,22,22,23,23],"right_children":[2,4,6,8,10,12,14,16,18,20,-1,22,24,-1,-1,26,-1,-1,28,30,-1,32,34,36,-1,-1,-1,-1,-1,-1,-1,-1,-1,-1,-1,-1,-1],"split_conditions":[-9.029239E-2,-2.833735E0,-1.1996258E0,7.9953444E-1,6.55926E0,7.7336985E-1,7.692942E0,3.5925052E0,-1.5699114E-1,4.983986E0,-7.2291098E-3,-1.3734987E0,2.4464622E0,-6.53186E-2,1.3162857E-3,1.4796433E0,-3.95427E-2,4.8659347E-2,2.0160778E-1,7.1507444E0,1.0752383E-2,-3.7624865E0,-5.970568E-1,1.224002E0,-5.340132E-2,8.2107045E-2,-1.273273E-4,-6.1607875E-2,1.044865E-2,9.359135E-2,2.8101726E-2,-3.7126053E-2,-6.4618886E-2,2.8409062E-2,-4.345595E-2,8.412313E-2,3.9408277E-4],"split_indices":[27,28,28,7,17,0,12,17,1,10,0,28,27,0,0,8,0,0,0,16,0,28,7,2,0,0,0,0,0,0,0,0,0,0,0,0,0],"split_type":[0,0,0,0,0,0,0,0,0,0,0,0,0,0,0,0,0,0,0,0,0,0,0,0,0,0,0,0,0,0,0,0,0,0,0,0,0],"sum_hessian":[1.4364291E3,1.14512856E2,1.3219163E3,1.7942062E1,9.65708E1,5.671216E1,1.2652041E3,9.236844E0,8.705218E0,9.514853E1,1.4222665E0,4.915136E1,7.5607977E0,1.2638937E3,1.3104511E0,7.9909635E0,1.2458804E0,1.9024392E0,6.8027787E0,9.321373E1,1.9348016E0,4.5818928E1,3.3324323E0,3.7465189E0,3.8142786E0,6.6698065E0,1.3211572E0,3.58675E0,3.2160287E0,9.174587E1,1.4678581E0,2.0091633E1,2.5727295E1,1.7002496E0,1.6321826E0,2.4343445E0,1.3121744E0],"tree_param":{"num_deleted":"0","num_feature":"29","num_nodes":"37","size_leaf_vector":"1"}},{"base_weights":[7.4269265E-1,-5.666277E-2,9.332574E-1,2.2370248E-1,-5.93664E-1,9.499595E-1,-6.201495E-2,-5.2999413E-1,6.778739E-1,-6.3649887E-1,-2.033471E-1,9.50718E-1,4.14274E-1,-2.4941178E-1,-6.207881E-1,2.4497262E-1,8.2916397E-1,-6.447955E-2,-1.2324988E-2,4.0666175E-1,-4.21665E-1,9.511434E-2,3.0871117E-2,6.91395E-2,-4.5768055E-3,-3.442493E-2,6.91941E-2,-6.48065E-2,-1.8955195E-2,3.3005383E-2,-3.2317553E-2,8.481039E-2,-1.6666967E-2,6.0599636E-2,-3.5903492E-4,3.4220525E-4,-5.777138E-2],"categories":[],"categories_nodes":[],"categories_segments":[],"categories_sizes":[],"default_left":[0,0,0,0,0,0,0,0,0,0,0,0,0,0,0,0,0,0,0,0,0,0,0,0,0,0,0,0,0,0,0,0,0,0,0,0,0],"id":13,"left_children":[1,3,5,7,9,11,-1,13,15,17,19,21,23,25,27,29,31,-1,-1,33,35,-1,-1,-1,-1,-1,-1,-1,-1,-1,-1,-1,-1,-1,-1,-1,-1],"loss_changes":[2.808559E2,5.3701794E1,3.9210938E1,8.062609E1,1.9156418E0,2.0471191E-1,0E0,2.105608E0,9.408501E0,3.8788986E-1,1.9781024E0,1.07910156E-1,5.231312E-1,2.3240814E0,6.5781593E-1,2.0124378E0,2.1845932E0,0E0,0E0,3.3619624E-1,6.972418E-1,0E0,0E0,0E0,0E0,0E0,0E0,0E0,0E0,0E0,0E0,0E0,0E0,0E0,0E0,0E0,0E0],"parents":[2147483647,0,0,1,1,2,2,3,3,4,4,5,5,7,7,8,8,9,9,10,10,11,11,12,12,13,13,14,14,15,15,16,16,19,19,20,20],"right_children":[2,4,6,8,10,12,-1,14,16,18,20,22,24,26,28,30,32,-1,-1,34,36,-1,-1,-1,-1,-1,-1,-1,-1,-1,-1,-1,-1,-1,-1,-1,-1],"split_conditions":[1.934372E-1,2.4464622E0,2.4464622E0,-9.029239E-2,2.731176E0,6.2625594E0,-6.201495E-2,-1.661529E0,-6.8933463E-1,3.7296455E0,-4.145555E0,7.580623E0,2.0999372E0,4.0156655E0,3.1617327E0,3.0094748E0,7.6661277E0,-6.447955E-2,-1.2324988E-2,2.2932129E-2,3.4759326E0,9.511434E-2,3.0871117E-2,6.91395E-2,-4.5768055E-3,-3.442493E-2,6.91941E-2,-6.48065E-2,-1.8955195E-2,3.3005383E-2,-3.2317553E-2,8.481039E-2,-1.6666967E-2,6.0599636E-2,-3.5903492E-4,3.4220525E-4,-5.777138E-2],"split_indices":[28,27,27,27,10,3,0,28,28,23,28,12,9,12,15,12,20,0,0,0,10,0,0,0,0,0,0,0,0,0,0,0,0,0,0,0,0],"split_type":[0,0,0,0,0,0,0,0,0,0,0,0,0,0,0,0,0,0,0,0,0,0,0,0,0,0,0,0,0,0,0,0,0,0,0,0,0],"sum_hessian":[1.842399E3,3.548066E2,1.4875924E3,2.3348753E2,1.2131908E2,1.4721525E3,1.5439988E1,8.7731064E1,1.4575647E2,1.0875335E2,1.2565728E1,1.4692972E3,2.8551872E0,2.236453E1,6.536653E1,3.8425365E1,1.0733111E2,1.0677108E2,1.9822658E0,3.0845068E0,9.481221E0,1.467843E3,1.4542584E0,1.4679972E0,1.38719E0,2.0893862E1,1.4706692E0,6.1004982E1,4.361549E0,3.378506E1,4.640303E0,1.05473434E2,1.8576677E0,1.7547643E0,1.3297423E0,2.8085687E0,6.6726522E0],"tree_param":{"num_deleted":"0","num_feature":"29","num_nodes":"37","size_leaf_vector":"1"}},{"base_weights":[-4.1549656E-1,-6.0751474E-1,9.1633224E-1,3.585922E-2,-6.2955815E-1,9.232605E-1,-1.4283009E-3,4.4999692E-1,-1.6815299E-1,-5.053731E-1,-6.447533E-1,3.9121193E-1,9.368209E-1,5.7082134E-1,-4.3658286E-2,-2.5535604E-1,5.84131E-2,-5.230226E-1,5.182099E-2,-6.4627326E-1,-1.5191411E-2,5.178285E-1,-3.4036282E-3,9.4093114E-1,2.6440104E-2,8.487615E-2,-4.5527723E-3,-3.3098135E-2,4.9873646E-2,-6.2612705E-2,-4.2145893E-2,-6.495022E-2,-4.8688438E-2,-4.1016553E-2,3.686329E-2,7.273341E-2,1.2706064E-2,9.4947755E-2,4.978998E-2],"categories":[],"categories_nodes":[],"categories_segments":[],"categories_sizes":[],"default_left":[0,0,0,0,0,0,0,0,0,0,0,0,0,0,0,0,0,0,0,0,0,0,0,0,0,0,0,0,0,0,0,0,0,0,0,0,0,0,0],"id":14,"left_children":[1,3,5,7,9,11,-1,13,15,17,19,21,23,25,-1,27,-1,29,-1,31,33,35,-1,37,-1,-1,-1,-1,-1,-1,-1,-1,-1,-1,-1,-1,-1,-1,-1],"loss_changes":[3.7589514E2,1.8223053E1,1.2081909E0,3.7475352E0,2.015747E0,9.6092224E-1,0E0,1.8148091E0,2.1069927E0,2.7985382E0,1.0447083E0,3.562866E-1,2.4508667E-1,2.3163161E0,0E0,1.7299352E0,0E0,1.1815414E0,0E0,2.4951172E-1,7.0881253E-1,3.0942023E-1,0E0,1.982727E-1,0E0,0E0,0E0,0E0,0E0,0E0,0E0,0E0,0E0,0E0,0E0,0E0,0E0,0E0,0E0],"parents":[2147483647,0,0,1,1,2,2,3,3,4,4,5,5,7,7,8,8,9,9,10,10,11,11,12,12,13,13,15,15,17,17,19,19,20,20,21,21,23,23],"right_children":[2,4,6,8,10,12,-1,14,16,18,20,22,24,26,-1,28,-1,30,-1,32,34,36,-1,38,-1,-1,-1,-1,-1,-1,-1,-1,-1,-1,-1,-1,-1,-1,-1],"split_conditions":[2.4464622E0,-1.8195144E0,9.307924E0,-5.2721543E0,1.4652178E-1,-5.897652E0,-1.4283009E-3,6.58857E0,3.053908E0,6.5948415E0,6.2625594E0,2.284118E0,5.3832016E0,4.5175368E-1,-4.3658286E-2,3.5925052E0,5.84131E-2,-9.029239E-2,5.182099E-2,3.5573597E0,2.0999372E0,7.27542E-1,-3.4036282E-3,3.7296455E0,2.6440104E-2,8.487615E-2,-4.5527723E-3,-3.3098135E-2,4.9873646E-2,-6.2612705E-2,-4.2145893E-2,-6.495022E-2,-4.8688438E-2,-4.1016553E-2,3.686329E-2,7.273341E-2,1.2706064E-2,9.4947755E-2,4.978998E-2],"split_indices":[27,28,24,28,28,28,0,23,14,17,3,11,0,0,0,17,0,27,0,13,9,7,0,23,0,0,0,0,0,0,0,0,0,0,0,0,0,0,0],"split_type":[0,0,0,0,0,0,0,0,0,0,0,0,0,0,0,0,0,0,0,0,0,0,0,0,0,0,0,0,0,0,0,0,0,0,0,0,0,0,0],"sum_hessian":[1.466683E3,1.2823433E3,1.843397E2,4.2459633E1,1.2398837E3,1.829853E2,1.3543925E0,1.3615303E1,2.8844328E1,1.3890645E2,1.1009772E3,5.28974E0,1.7769557E2,1.2295771E1,1.3195326E0,2.644002E1,2.4043078E0,1.3703265E2,1.8737986E0,1.098299E3,2.6781635E0,3.9083338E0,1.381406E0,1.762191E2,1.4764649E0,8.214428E0,4.0813427E0,2.454007E1,1.8999516E0,6.543753E1,7.159512E1,1.0734773E3,2.482172E1,1.2860878E0,1.3920759E0,1.9835715E0,1.9247622E0,1.7176253E2,4.456573E0],"tree_param":{"num_deleted":"0","num_feature":"29","num_nodes":"39","size_leaf_vector":"1"}},{"base_weights":[-5.11712E-1,7.367697E-1,-6.2626886E-1,2.8424692E-1,8.460419E-1,-4.1639587E-1,-6.355361E-1,3.774515E-1,-3.1243524E-1,8.672264E-1,4.6123385E-1,-4.8855877E-1,4.6963513E-2,-6.362631E-2,1.5631452E-3,4.6642137E-1,-4.300409E-2,-4.481581E-2,-4.784716E-3,8.7474036E-1,2.6250074E-2,-2.4174115E-2,7.8418784E-2,-5.052434E-1,1.0454693E-2,5.88221E-1,-5.176418E-2,6.820651E-2,1.8247858E-2,8.823158E-2,2.656785E-2,-5.362117E-2,-6.451846E-3,5.365825E-4,8.061735E-2],"categories":[],"categories_nodes":[],"categories_segments":[],"categories_sizes":[],"default_left":[0,0,0,0,0,0,0,0,0,0,0,0,0,0,0,0,0,0,0,0,0,0,0,0,0,0,0,0,0,0,0,0,0,0,0],"id":15,"left_children":[1,3,5,7,9,11,13,15,17,19,21,23,25,-1,-1,27,-1,-1,-1,29,-1,-1,-1,31,-1,33,-1,-1,-1,-1,-1,-1,-1,-1,-1],"loss_changes":[1.9502676E2,5.435837E0,2.1598816E0,1.4434171E0,3.4964752E-1,1.8826361E0,5.7421875E-1,1.7140725E0,1.1383641E-1,1.6127014E-1,1.7638916E0,5.2989864E-1,2.8735926E0,0E0,0E0,1.066822E0,0E0,0E0,0E0,1.556549E-1,0E0,0E0,0E0,6.077366E-1,0E0,6.003922E-1,0E0,0E0,0E0,0E0,0E0,0E0,0E0,0E0,0E0],"parents":[2147483647,0,0,1,1,2,2,3,3,4,4,5,5,6,6,7,7,8,8,9,9,10,10,11,11,12,12,15,15,19,19,23,23,25,25],"right_children":[2,4,6,8,10,12,14,16,18,20,22,24,26,-1,-1,28,-1,-1,-1,30,-1,-1,-1,32,-1,34,-1,-1,-1,-1,-1,-1,-1,-1,-1],"split_conditions":[-9.029239E-2,-1.8195144E0,-1.1996258E0,2.4322941E0,3.1617327E0,7.7336985E-1,7.692942E0,3.0094748E0,2.2932129E-2,4.819098E0,7.740794E-1,3.8745322E0,2.4464622E0,-6.362631E-2,1.5631452E-3,-7.441955E-2,-4.300409E-2,-4.481581E-2,-4.784716E-3,6.442525E0,2.6250074E-2,-2.4174115E-2,7.8418784E-2,3.8989754E0,1.0454693E-2,-1.3043319E0,-5.176418E-2,6.820651E-2,1.8247858E-2,8.823158E-2,2.656785E-2,-5.362117E-2,-6.451846E-3,5.365825E-4,8.061735E-2],"split_indices":[27,28,28,9,15,0,12,12,0,10,7,5,27,0,0,1,0,0,0,17,0,0,0,14,0,7,0,0,0,0,0,0,0,0,0],"split_type":[0,0,0,0,0,0,0,0,0,0,0,0,0,0,0,0,0,0,0,0,0,0,0,0,0,0,0,0,0,0,0,0,0,0,0],"sum_hessian":[1.3593864E3,1.1379342E2,1.2455929E3,2.283392E1,9.0959496E1,5.4617123E1,1.1909758E3,2.0066807E1,2.767114E0,8.502504E1,5.934462E0,4.7210278E1,7.406844E0,1.1896704E3,1.3053167E0,1.8455729E1,1.6110773E0,1.3703734E0,1.3967407E0,8.3540504E1,1.4845319E0,1.9472799E0,3.9871821E0,4.606263E1,1.1476488E0,3.7602563E0,3.6465876E0,9.6925125E0,8.763216E0,8.207107E1,1.4694357E0,4.2836033E1,3.2265968E0,1.3022795E0,2.4579766E0],"tree_param":{"num_deleted":"0","num_feature":"29","num_nodes":"35","size_leaf_vector":"1"}},{"base_weights":[6.921177E-1,-5.4179378E-2,8.6690104E-1,2.081413E-1,-5.747986E-1,8.820359E-1,-6.0241397E-2,-5.101057E-1,6.2189627E-1,-6.188804E-1,-1.8571907E-1,8.827434E-1,3.8929725E-1,-2.893681E-1,-6.3214056E-2,2.1831237E-1,7.645685E-1,-6.2745005E-2,-1.1513005E-2,3.9111844E-1,-4.0210512E-1,8.831512E-2,2.858427E-2,-5.7264674E-3,6.630713E-2,-3.9588314E-2,3.1390738E-2,9.280077E-3,6.048536E-2,7.82724E-2,-1.7335389E-2,5.8274806E-2,-5.3853577E-4,1.2871115E-3,-5.604992E-2],"categories":[],"categories_nodes":[],"categories_segments":[],"categories_sizes":[],"default_left":[0,0,0,0,0,0,0,0,0,0,0,0,0,0,0,0,0,0,0,0,0,0,0,0,0,0,0,0,0,0,0,0,0,0,0],"id":16,"left_children":[1,3,5,7,9,11,-1,13,15,17,19,21,23,25,-1,27,29,-1,-1,31,33,-1,-1,-1,-1,-1,-1,-1,-1,-1,-1,-1,-1,-1,-1],"loss_changes":[2.3645831E2,4.7217236E1,3.3188843E1,6.8683685E1,1.8713646E0,1.6320801E-1,0E0,2.0969505E0,8.263802E0,3.7498474E-1,1.8067017E0,1.0070801E-1,5.1156646E-1,2.178994E0,0E0,1.8670738E0,1.9709511E0,0E0,0E0,3.1555724E-1,6.712669E-1,0E0,0E0,0E0,0E0,0E0,0E0,0E0,0E0,0E0,0E0,0E0,0E0,0E0,0E0],"parents":[2147483647,0,0,1,1,2,2,3,3,4,4,5,5,7,7,8,8,9,9,10,10,11,11,12,12,13,13,15,15,16,16,19,19,20,20],"right_children":[2,4,6,8,10,12,-1,14,16,18,20,22,24,26,-1,28,30,-1,-1,32,34,-1,-1,-1,-1,-1,-1,-1,-1,-1,-1,-1,-1,-1,-1],"split_conditions":[1.934372E-1,2.4464622E0,2.4464622E0,-9.029239E-2,2.731176E0,6.2625594E0,-6.0241397E-2,-8.4213257E-1,-6.8933463E-1,3.7296455E0,-4.145555E0,7.580623E0,1.2979165E0,3.1617327E0,-6.3214056E-2,8.407622E-1,7.6661277E0,-6.2745005E-2,-1.1513005E-2,2.2932129E-2,3.4759326E0,8.831512E-2,2.858427E-2,-5.7264674E-3,6.630713E-2,-3.9588314E-2,3.1390738E-2,9.280077E-3,6.048536E-2,7.82724E-2,-1.7335389E-2,5.8274806E-2,-5.3853577E-4,1.2871115E-3,-5.604992E-2],"split_indices":[28,27,27,27,10,3,0,28,28,23,28,12,4,15,0,7,20,0,0,0,10,0,0,0,0,0,0,0,0,0,0,0,0,0,0],"split_type":[0,0,0,0,0,0,0,0,0,0,0,0,0,0,0,0,0,0,0,0,0,0,0,0,0,0,0,0,0,0,0,0,0,0,0],"sum_hessian":[1.8114106E3,3.4386255E2,1.4675481E3,2.2905197E2,1.1481057E2,1.4529812E3,1.4566922E1,8.363505E1,1.4541693E2,1.02596054E2,1.22145195E1,1.4501074E3,2.8737721E0,3.0976202E1,5.2658844E1,3.8641106E1,1.0677582E2,1.0063846E2,1.9575922E0,3.1117573E0,9.102762E0,1.4486382E3,1.4693058E0,1.3927855E0,1.4809866E0,2.6619934E1,4.35627E0,3.0105726E1,8.53538E0,1.04910515E2,1.8653008E0,1.7811935E0,1.330564E0,2.768449E0,6.3343124E0],"tree_param":{"num_deleted":"0","num_feature":"29","num_nodes":"35","size_leaf_vector":"1"}},{"base_weights":[-4.0019265E-1,-5.889602E-1,8.5016644E-1,3.7678517E-2,-6.1152786E-1,8.567948E-1,-2.0537786E-3,4.237597E-1,-1.5620784E-1,-4.8438805E-1,-6.2734634E-1,3.6055574E-1,8.6970824E-1,6.4648384E-1,-7.437582E-2,-2.411567E-1,5.5744756E-2,-5.0224966E-1,4.986386E-2,-6.2890357E-1,-1.7137589E-2,4.786555E-1,-3.554158E-3,8.7384194E-1,2.277843E-2,8.268311E-2,-1.3047653E-2,-5.093872E-2,4.731213E-2,-3.1556517E-2,4.806477E-2,-5.1444292E-2,1.8194716E-2,-6.323107E-2,-4.6345275E-2,3.599628E-2,-4.063977E-2,6.8568274E-2,1.055384E-2,8.776774E-2,2.5134226E-2],"categories":[],"categories_nodes":[],"categories_segments":[],"categories_sizes":[],"default_left":[0,0,0,0,0,0,0,0,0,0,0,0,0,0,0,0,0,0,0,0,0,0,0,0,0,0,0,0,0,0,0,0,0,0,0,0,0,0,0,0,0],"id":17,"left_children":[1,3,5,7,9,11,-1,13,15,17,19,21,23,25,27,29,-1,31,-1,33,35,37,-1,39,-1,-1,-1,-1,-1,-1,-1,-1,-1,-1,-1,-1,-1,-1,-1,-1,-1],"loss_changes":[3.297625E2,1.7171722E1,1.0760193E0,3.292129E0,2.050293E0,8.5287476E-1,0E0,1.6763747E0,1.9179325E0,2.6016655E0,9.751587E-1,3.128839E-1,2.6986694E-1,1.5434322E0,1.5345781E0,1.601137E0,0E0,1.1949654E0,0E0,2.9037476E-1,6.8489516E-1,3.093282E-1,0E0,1.977539E-1,0E0,0E0,0E0,0E0,0E0,0E0,0E0,0E0,0E0,0E0,0E0,0E0,0E0,0E0,0E0,0E0,0E0],"parents":[2147483647,0,0,1,1,2,2,3,3,4,4,5,5,7,7,8,8,9,9,10,10,11,11,12,12,13,13,14,14,15,15,17,17,19,19,20,20,21,21,23,23],"right_children":[2,4,6,8,10,12,-1,14,16,18,20,22,24,26,28,30,-1,32,-1,34,36,38,-1,40,-1,-1,-1,-1,-1,-1,-1,-1,-1,-1,-1,-1,-1,-1,-1,-1,-1],"split_conditions":[2.4464622E0,-1.8195144E0,9.307924E0,-5.2721543E0,1.4652178E-1,-5.897652E0,-2.0537786E-3,5.2650195E-1,3.053908E0,6.5948415E0,6.2625594E0,2.284118E0,2.8668377E0,2.3569787E0,1.7963446E0,3.5925052E0,5.5744756E-2,5.5636897E0,4.986386E-2,3.5573597E0,1.2979165E0,-6.4597926E0,-3.554158E-3,6.9388857E0,2.277843E-2,8.268311E-2,-1.3047653E-2,-5.093872E-2,4.731213E-2,-3.1556517E-2,4.806477E-2,-5.1444292E-2,1.8194716E-2,-6.323107E-2,-4.6345275E-2,3.599628E-2,-4.063977E-2,6.8568274E-2,1.055384E-2,8.776774E-2,2.5134226E-2],"split_indices":[27,28,24,28,28,28,0,4,14,17,3,11,2,9,5,17,0,21,0,13,4,28,0,16,0,0,0,0,0,0,0,0,0,0,0,0,0,0,0,0,0],"split_type":[0,0,0,0,0,0,0,0,0,0,0,0,0,0,0,0,0,0,0,0,0,0,0,0,0,0,0,0,0,0,0,0,0,0,0,0,0,0,0,0,0],"sum_hessian":[1.3940166E3,1.2116256E3,1.8239093E2,4.2095276E1,1.1695304E3,1.810288E2,1.3621306E0,1.3676329E1,2.8418945E1,1.3290868E2,1.0366217E3,5.324883E0,1.7570392E2,9.244957E0,4.4313717E0,2.598763E1,2.4313145E0,1.3101718E2,1.8915048E0,1.0339525E3,2.6692324E0,3.941317E0,1.3835659E0,1.7422072E2,1.4831908E0,7.451205E0,1.793752E0,2.5081444E0,1.9232273E0,2.4069225E1,1.9184072E0,1.2896693E2,2.0502446E0,1.010325E3,2.3627474E1,1.3940214E0,1.275211E0,1.9960672E0,1.94525E0,1.7274644E2,1.4742689E0],"tree_param":{"num_deleted":"0","num_feature":"29","num_nodes":"41","size_leaf_vector":"1"}},{"base_weights":[-4.9673948E-1,6.8821806E-1,-6.108513E-1,1.9661678E-1,7.790414E-1,-3.9787203E-1,-6.205026E-1,4.7278324E-1,-1.1720389E-1,7.9304194E-1,-8.367892E-3,-4.7005135E-1,5.577859E-2,-6.212618E-2,1.7872656E-3,6.280343E-1,-3.8260505E-2,4.368937E-2,-3.120354E-1,8.0781776E-1,6.4674313E-3,-4.9964616E-1,-5.39812E-2,5.6730753E-1,-5.0193787E-2,-9.1679086E-4,7.393614E-2,-6.149848E-2,8.426943E-3,8.145712E-2,2.3561204E-2,-3.27166E-2,-6.183336E-2,-4.1200373E-2,3.11115E-2,7.722285E-2,8.973579E-4],"categories":[],"categories_nodes":[],"categories_segments":[],"categories_sizes":[],"default_left":[0,0,0,0,0,0,0,0,0,0,0,0,0,0,0,0,0,0,0,0,0,0,0,0,0,0,0,0,0,0,0,0,0,0,0,0,0],"id":18,"left_children":[1,3,5,7,9,11,13,15,17,19,-1,21,23,-1,-1,25,-1,-1,27,29,-1,31,33,35,-1,-1,-1,-1,-1,-1,-1,-1,-1,-1,-1,-1,-1],"loss_changes":[1.7390137E2,4.899666E0,2.1597595E0,1.7007856E0,1.2160416E0,1.7794437E0,5.5307007E-1,1.6077328E0,1.1822056E0,9.568062E-1,0E0,5.4313755E-1,2.636567E0,0E0,0E0,6.518738E-1,0E0,0E0,9.824225E-1,1.6285324E-1,0E0,6.80089E-1,6.766094E-1,5.387466E-1,0E0,0E0,0E0,0E0,0E0,0E0,0E0,0E0,0E0,0E0,0E0,0E0,0E0],"parents":[2147483647,0,0,1,1,2,2,3,3,4,4,5,5,6,6,7,7,8,8,9,9,11,11,12,12,15,15,18,18,19,19,21,21,22,22,23,23],"right_children":[2,4,6,8,10,12,14,16,18,20,-1,22,24,-1,-1,26,-1,-1,28,30,-1,32,34,36,-1,-1,-1,-1,-1,-1,-1,-1,-1,-1,-1,-1,-1],"split_conditions":[-9.029239E-2,-2.833735E0,-1.1996258E0,7.9953444E-1,6.55926E0,7.7336985E-1,7.692942E0,3.5925052E0,-1.5699114E-1,4.983986E0,-8.367892E-3,-1.3734987E0,2.4464622E0,-6.212618E-2,1.7872656E-3,-6.4597926E0,-3.8260505E-2,4.368937E-2,2.0160778E-1,7.1507444E0,6.4674313E-3,-3.7624865E0,5.2650195E-1,1.224002E0,-5.0193787E-2,-9.1679086E-4,7.393614E-2,-6.149848E-2,8.426943E-3,8.145712E-2,2.3561204E-2,-3.27166E-2,-6.183336E-2,-4.1200373E-2,3.11115E-2,7.722285E-2,8.973579E-4],"split_indices":[27,28,28,7,17,0,12,17,1,10,0,28,27,0,0,28,0,0,0,16,0,28,4,2,0,0,0,0,0,0,0,0,0,0,0,0,0],"split_type":[0,0,0,0,0,0,0,0,0,0,0,0,0,0,0,0,0,0,0,0,0,0,0,0,0,0,0,0,0,0,0,0,0,0,0,0,0],"sum_hessian":[1.2819761E3,1.1216836E2,1.1698077E3,1.7985064E1,9.41833E1,5.25431E1,1.1172646E3,9.29702E0,8.688044E0,9.2758736E1,1.4245577E0,4.5299454E1,7.2436447E0,1.1159642E3,1.300429E0,8.093803E0,1.2032168E0,1.9369558E0,6.751088E0,9.080752E1,1.951217E0,4.210377E1,3.195683E0,3.769302E0,3.4743428E0,1.3402532E0,6.7535496E0,3.5134702E0,3.2376177E0,8.932964E1,1.4778783E0,1.8693846E1,2.3409925E1,1.5486035E0,1.6470795E0,2.4770691E0,1.292233E0],"tree_param":{"num_deleted":"0","num_feature":"29","num_nodes":"37","size_leaf_vector":"1"}},{"base_weights":[6.501979E-1,-5.2550808E-2,8.129518E-1,1.9345383E-1,-5.574004E-1,8.2687926E-1,-5.865264E-2,-4.9124214E-1,5.7204556E-1,-6.0295635E-1,-1.6830643E-1,8.2755756E-1,3.6654985E-1,-2.7125216E-1,-6.1688155E-2,-4.3902863E-2,6.5433073E-1,-6.1195362E-2,-1.0099232E-2,3.743841E-1,-3.8227946E-1,8.279591E-2,2.6476547E-2,-5.6441296E-3,6.252553E-2,-3.753874E-2,2.9128043E-2,-2.3913838E-2,8.637356E-2,6.837604E-2,8.118719E-3,5.5838715E-2,-7.6652336E-4,2.2141694E-3,-5.4354258E-2],"categories":[],"categories_nodes":[],"categories_segments":[],"categories_sizes":[],"default_left":[0,0,0,0,0,0,0,0,0,0,0,0,0,0,0,0,0,0,0,0,0,0,0,0,0,0,0,0,0,0,0,0,0,0,0],"id":19,"left_children":[1,3,5,7,9,11,-1,13,15,17,19,21,23,25,-1,27,29,-1,-1,31,33,-1,-1,-1,-1,-1,-1,-1,-1,-1,-1,-1,-1,-1,-1],"loss_changes":[2.0192352E2,4.144676E1,2.8420166E1,5.848695E1,1.8361244E0,1.3995361E-1,0E0,2.057312E0,7.380581E0,3.7839127E-1,1.6346079E0,1.0083008E-1,4.60281E-1,1.9278221E0,0E0,3.4017823E0,2.1039047E0,0E0,0E0,2.9513043E-1,6.4509964E-1,0E0,0E0,0E0,0E0,0E0,0E0,0E0,0E0,0E0,0E0,0E0,0E0,0E0,0E0],"parents":[2147483647,0,0,1,1,2,2,3,3,4,4,5,5,7,7,8,8,9,9,10,10,11,11,12,12,13,13,15,15,16,16,19,19,20,20],"right_children":[2,4,6,8,10,12,-1,14,16,18,20,22,24,26,-1,28,30,-1,-1,32,34,-1,-1,-1,-1,-1,-1,-1,-1,-1,-1,-1,-1,-1,-1],"split_conditions":[1.934372E-1,2.4464622E0,2.4464622E0,-9.029239E-2,2.731176E0,6.2625594E0,-5.865264E-2,-8.4213257E-1,-2.833735E0,3.7296455E0,-4.145555E0,7.580623E0,2.6258537E-1,3.1617327E0,-6.1688155E-2,4.705421E0,4.2570734E0,-6.1195362E-2,-1.0099232E-2,2.2932129E-2,3.4759326E0,8.279591E-2,2.6476547E-2,-5.6441296E-3,6.252553E-2,-3.753874E-2,2.9128043E-2,-2.3913838E-2,8.637356E-2,6.837604E-2,8.118719E-3,5.5838715E-2,-7.6652336E-4,2.2141694E-3,-5.4354258E-2],"split_indices":[28,27,27,27,10,3,0,28,28,23,28,12,28,15,0,16,12,0,0,0,10,0,0,0,0,0,0,0,0,0,0,0,0,0,0],"split_type":[0,0,0,0,0,0,0,0,0,0,0,0,0,0,0,0,0,0,0,0,0,0,0,0,0,0,0,0,0,0,0,0,0,0,0],"sum_hessian":[1.7640767E3,3.3185406E2,1.4322225E3,2.2354243E2,1.0831163E2,1.4185148E3,1.3707759E1,7.9488045E1,1.4405438E2,9.6467384E1,1.1844247E1,1.4156311E3,2.8836713E0,3.0042942E1,4.9445107E1,1.7031439E1,1.2702295E2,9.4553474E1,1.9139073E0,3.137376E0,8.70687E0,1.4141511E3,1.4799716E0,1.3910671E0,1.492604E0,2.5630873E1,4.4120684E0,1.4622604E1,2.4088354E0,1.20635574E2,6.3873763E0,1.8060073E0,1.3313689E0,2.728056E0,5.978814E0],"tree_param":{"num_deleted":"0","num_feature":"29","num_nodes":"35","size_leaf_vector":"1"}},{"base_weights":[-3.8638E-1,-5.719651E-1,7.957073E-1,3.9257616E-2,-5.9516E-1,8.021737E-1,-2.6800162E-3,4.0408894E-1,-1.4609686E-1,-4.641858E-1,-6.1175716E-1,3.3273026E-1,8.147428E-1,5.148139E-1,-4.2251583E-2,-2.2966926E-1,5.415232E-2,-4.8233387E-1,4.836379E-2,-6.133613E-1,-1.8571982E-2,4.442704E-1,-3.8064902E-3,8.188088E-1,2.0581877E-2,6.496297E-2,-4.1892882E-2,-3.0276556E-2,4.630307E-2,-5.9205648E-2,-3.779115E-2,-6.1697852E-2,-4.408297E-2,3.385591E-2,-3.943976E-2,6.5135546E-2,8.438999E-3,8.268832E-2,4.197454E-2],"categories":[],"categories_nodes":[],"categories_segments":[],"categories_sizes":[],"default_left":[0,0,0,0,0,0,0,0,0,0,0,0,0,0,0,0,0,0,0,0,0,0,0,0,0,0,0,0,0,0,0,0,0,0,0,0,0,0,0],"id":20,"left_children":[1,3,5,7,9,11,-1,13,15,17,19,21,23,25,-1,27,-1,29,-1,31,33,35,-1,37,-1,-1,-1,-1,-1,-1,-1,-1,-1,-1,-1,-1,-1,-1,-1],"loss_changes":[2.9021707E2,1.6216461E1,9.769745E-1,2.9463792E0,2.1082458E0,7.8084564E-1,0E0,1.5583794E0,1.7936144E0,2.4335804E0,9.1500854E-1,2.7908897E-1,2.596588E-1,1.9552429E0,0E0,1.487142E0,0E0,1.2200527E0,0E0,3.3395386E-1,6.243617E-1,3.14094E-1,0E0,2.0537567E-1,0E0,0E0,0E0,0E0,0E0,0E0,0E0,0E0,0E0,0E0,0E0,0E0,0E0,0E0,0E0],"parents":[2147483647,0,0,1,1,2,2,3,3,4,4,5,5,7,7,8,8,9,9,10,10,11,11,12,12,13,13,15,15,17,17,19,19,20,20,21,21,23,23],"right_children":[2,4,6,8,10,12,-1,14,16,18,20,22,24,26,-1,28,-1,30,-1,32,34,36,-1,38,-1,-1,-1,-1,-1,-1,-1,-1,-1,-1,-1,-1,-1,-1,-1],"split_conditions":[2.4464622E0,-1.8195144E0,9.307924E0,-5.2721543E0,1.4652178E-1,-5.897652E0,-2.6800162E-3,6.58857E0,3.053908E0,6.5948415E0,6.2625594E0,2.284118E0,5.3832016E0,3.2302384E0,-4.2251583E-2,3.5925052E0,5.415232E-2,-9.029239E-2,4.836379E-2,3.5573597E0,2.6258537E-1,7.27542E-1,-3.8064902E-3,3.7296455E0,2.0581877E-2,6.496297E-2,-4.1892882E-2,-3.0276556E-2,4.630307E-2,-5.9205648E-2,-3.779115E-2,-6.1697852E-2,-4.408297E-2,3.385591E-2,-3.943976E-2,6.5135546E-2,8.438999E-3,8.268832E-2,4.197454E-2],"split_indices":[27,28,24,28,28,28,0,23,14,17,3,11,0,14,0,17,0,27,0,13,28,7,0,23,0,0,0,0,0,0,0,0,0,0,0,0,0,0,0],"split_type":[0,0,0,0,0,0,0,0,0,0,0,0,0,0,0,0,0,0,0,0,0,0,0,0,0,0,0,0,0,0,0,0,0,0,0,0,0,0,0],"sum_hessian":[1.3198352E3,1.1411874E3,1.786478E2,4.169757E1,1.0994897E3,1.772788E2,1.3690145E0,1.365011E1,2.804746E1,1.2691596E2,9.725738E2,5.339144E0,1.7193964E2,1.2370286E1,1.2798238E0,2.5601843E1,2.445619E0,1.2501343E2,1.9025307E0,9.699169E2,2.6569695E0,3.9521337E0,1.3870106E0,1.7045676E2,1.4828793E0,1.1075461E1,1.2948248E0,2.36673E1,1.9345424E0,5.8682514E1,6.633092E1,9.474765E2,2.2440374E1,1.4132127E0,1.2437568E0,1.9945139E0,1.9576198E0,1.6602547E2,4.4312954E0],"tree_param":{"num_deleted":"0","num_feature":"29","num_nodes":"39","size_leaf_vector":"1"}},{"base_weights":[-4.834182E-1,6.451179E-1,-5.969827E-1,2.4337584E-1,7.465568E-1,-3.806052E-1,-6.070701E-1,3.3228782E-1,-3.1718913E-1,7.6777524E-1,3.832784E-1,-4.5257774E-1,6.225653E-2,-6.0786337E-2,1.6255869E-3,4.1551977E-1,-4.2420805E-2,-4.4932898E-2,-5.479686E-3,7.75309E-1,2.1754554E-2,-2.6868751E-2,6.9919534E-2,1.4503042E-2,-4.7036117E-1,5.459882E-1,-4.8762802E-2,6.0733296E-2,1.6062308E-2,7.8270294E-2,2.2279924E-2,-3.0442854E-2,-5.7407882E-2,2.4664795E-4,7.470627E-2],"categories":[],"categories_nodes":[],"categories_segments":[],"categories_sizes":[],"default_left":[0,0,0,0,0,0,0,0,0,0,0,0,0,0,0,0,0,0,0,0,0,0,0,0,0,0,0,0,0,0,0,0,0,0,0],"id":21,"left_children":[1,3,5,7,9,11,13,15,17,19,21,23,25,-1,-1,27,-1,-1,-1,29,-1,-1,-1,-1,31,33,-1,-1,-1,-1,-1,-1,-1,-1,-1],"loss_changes":[1.549429E2,4.331249E0,2.161621E0,1.2920364E0,3.8352585E-1,1.6699705E0,5.26947E-1,1.5008881E0,1.0612658E-1,1.7159271E-1,1.5986096E0,5.4038906E-1,2.415469E0,0E0,0E0,8.5377693E-1,0E0,0E0,0E0,1.5481949E-1,0E0,0E0,0E0,0E0,5.71826E-1,5.194944E-1,0E0,0E0,0E0,0E0,0E0,0E0,0E0,0E0,0E0],"parents":[2147483647,0,0,1,1,2,2,3,3,4,4,5,5,6,6,7,7,8,8,9,9,10,10,11,11,12,12,15,15,19,19,24,24,25,25],"right_children":[2,4,6,8,10,12,14,16,18,20,22,24,26,-1,-1,28,-1,-1,-1,30,-1,-1,-1,-1,32,34,-1,-1,-1,-1,-1,-1,-1,-1,-1],"split_conditions":[-9.029239E-2,-1.8195144E0,-1.1996258E0,2.4322941E0,3.1617327E0,7.7336985E-1,7.692942E0,3.0094748E0,3.295922E0,4.819098E0,7.740794E-1,-1.4044342E0,2.4464622E0,-6.0786337E-2,1.6255869E-3,-7.441955E-2,-4.2420805E-2,-4.4932898E-2,-5.479686E-3,6.442525E0,2.1754554E-2,-2.6868751E-2,6.9919534E-2,1.4503042E-2,-3.7624865E0,-1.3043319E0,-4.8762802E-2,6.0733296E-2,1.6062308E-2,7.8270294E-2,2.2279924E-2,-3.0442854E-2,-5.7407882E-2,2.4664795E-4,7.470627E-2],"split_indices":[27,28,28,9,15,0,12,12,9,10,7,7,27,0,0,1,0,0,0,17,0,0,0,0,28,7,0,0,0,0,0,0,0,0,0],"split_type":[0,0,0,0,0,0,0,0,0,0,0,0,0,0,0,0,0,0,0,0,0,0,0,0,0,0,0,0,0,0,0,0,0,0,0],"sum_hessian":[1.2049592E3,1.09740776E2,1.0952184E3,2.2808504E1,8.6932274E1,5.0509064E1,1.0447094E3,2.0037548E1,2.770956E0,8.108291E1,5.849369E0,4.342915E1,7.079915E0,1.0434062E3,1.3030932E0,1.8457527E1,1.5800217E0,1.3690666E0,1.4018894E0,7.9584175E1,1.4987324E0,1.9580303E0,3.8913388E0,1.0482309E0,4.2380917E1,3.7702894E0,3.3096259E0,9.743071E0,8.714456E0,7.812208E1,1.4620924E0,1.7814909E1,2.456601E1,1.2915053E0,2.478784E0],"tree_param":{"num_deleted":"0","num_feature":"29","num_nodes":"35","size_leaf_vector":"1"}},{"base_weights":[6.150634E-1,-5.0416358E-2,7.6843727E-1,1.8111661E-1,-5.4131204E-1,7.813944E-1,-5.7175826E-2,-4.7308218E-1,5.299599E-1,-5.885789E-1,-1.5175758E-1,7.8300583E-1,5.274719E-1,-2.5214517E-1,-6.0361035E-2,1.6723911E-1,6.630976E-1,-5.9798818E-2,-9.33803E-3,3.6130348E-1,-3.6395937E-1,7.8341305E-2,2.4526706E-2,-1.7294955E-2,7.155331E-2,-3.5573702E-2,2.8501645E-2,9.385123E-3,8.025897E-2,6.815008E-2,-2.1194343E-2,5.3877153E-2,-8.78986E-4,3.1128563E-3,-5.2852213E-2],"categories":[],"categories_nodes":[],"categories_segments":[],"categories_sizes":[],"default_left":[0,0,0,0,0,0,0,0,0,0,0,0,0,0,0,0,0,0,0,0,0,0,0,0,0,0,0,0,0,0,0,0,0,0,0],"id":22,"left_children":[1,3,5,7,9,11,-1,13,15,17,19,21,23,25,-1,27,29,-1,-1,31,33,-1,-1,-1,-1,-1,-1,-1,-1,-1,-1,-1,-1,-1,-1],"loss_changes":[1.7411407E2,3.651236E1,2.4516968E1,5.010434E1,1.8059521E0,1.4880371E-1,0E0,2.0540295E0,6.7923927E0,3.702507E-1,1.4907975E0,1.0620117E-1,1.6680775E0,1.7779508E0,0E0,1.7766602E0,1.8229179E0,0E0,0E0,2.776242E-1,6.230842E-1,0E0,0E0,0E0,0E0,0E0,0E0,0E0,0E0,0E0,0E0,0E0,0E0,0E0,0E0],"parents":[2147483647,0,0,1,1,2,2,3,3,4,4,5,5,7,7,8,8,9,9,10,10,11,11,12,12,13,13,15,15,16,16,19,19,20,20],"right_children":[2,4,6,8,10,12,-1,14,16,18,20,22,24,26,-1,28,30,-1,-1,32,34,-1,-1,-1,-1,-1,-1,-1,-1,-1,-1,-1,-1,-1,-1],"split_conditions":[1.934372E-1,2.4464622E0,2.4464622E0,-9.029239E-2,2.731176E0,5.9081583E0,-5.7175826E-2,-8.4213257E-1,-6.8933463E-1,3.7296455E0,-4.145555E0,7.580623E0,7.1083224E-1,3.1617327E0,-6.0361035E-2,3.7296455E0,7.6661277E0,-5.9798818E-2,-9.33803E-3,2.2932129E-2,3.4759326E0,7.8341305E-2,2.4526706E-2,-1.7294955E-2,7.155331E-2,-3.5573702E-2,2.8501645E-2,9.385123E-3,8.025897E-2,6.815008E-2,-2.1194343E-2,5.3877153E-2,-8.78986E-4,3.1128563E-3,-5.2852213E-2],"split_indices":[28,27,27,27,10,18,0,28,28,23,28,12,7,15,0,23,20,0,0,0,10,0,0,0,0,0,0,0,0,0,0,0,0,0,0],"split_type":[0,0,0,0,0,0,0,0,0,0,0,0,0,0,0,0,0,0,0,0,0,0,0,0,0,0,0,0,0,0,0,0,0,0,0],"sum_hessian":[1.7044983E3,3.193835E2,1.3851147E3,2.174523E2,1.0193122E2,1.3722644E3,1.2850289E1,7.550285E1,1.4194945E2,9.044599E1,1.1485229E1,1.3615403E3,1.0724131E1,2.9129263E1,4.637359E1,3.871911E1,1.0323034E2,8.855576E1,1.890226E0,3.1548347E0,8.330394E0,1.3600536E3,1.4867816E0,2.2869377E0,8.437193E0,2.4703022E1,4.4262424E0,3.5738724E1,2.9803817E0,1.0132062E2,1.9097203E0,1.8242797E0,1.330555E0,2.6879387E0,5.642455E0],"tree_param":{"num_deleted":"0","num_feature":"29","num_nodes":"35","size_leaf_vector":"1"}},{"base_weights":[-3.738827E-1,-5.5637795E-1,7.502964E-1,3.730258E-2,-5.801859E-1,7.5668406E-1,-3.188926E-3,3.749534E-1,-1.3681176E-1,-4.442933E-1,-5.9775007E-1,3.0761737E-1,7.6914275E-1,5.803194E-1,-8.4398635E-2,-2.1798809E-1,5.1595338E-2,-4.6280876E-1,4.7166135E-2,-5.994089E-1,-1.974849E-2,4.1244277E-1,-3.8660944E-3,7.733531E-1,1.7457224E-2,7.5022325E-2,-1.39620975E-2,-5.001061E-2,4.2925898E-2,-2.8932197E-2,4.4125866E-2,-5.7620812E-2,-3.574964E-2,-6.032684E-2,-4.1886583E-2,-3.908229E-2,3.3180546E-2,6.187264E-2,6.627004E-3,7.8130506E-2,3.9155897E-2],"categories":[],"categories_nodes":[],"categories_segments":[],"categories_sizes":[],"default_left":[0,0,0,0,0,0,0,0,0,0,0,0,0,0,0,0,0,0,0,0,0,0,0,0,0,0,0,0,0,0,0,0,0,0,0,0,0,0,0,0,0],"id":23,"left_children":[1,3,5,7,9,11,-1,13,15,17,19,21,23,25,27,29,-1,31,-1,33,35,37,-1,39,-1,-1,-1,-1,-1,-1,-1,-1,-1,-1,-1,-1,-1,-1,-1,-1,-1],"loss_changes":[2.561253E2,1.5186249E1,8.9598846E-1,2.5384789E0,2.1966858E0,7.320328E-1,0E0,1.4320197E0,1.6303637E0,2.2867832E0,8.612976E-1,2.4608308E-1,2.8503418E-1,1.359556E0,1.3682885E0,1.3588274E0,0E0,1.2277622E0,0E0,3.8000488E-1,6.0453296E-1,3.126551E-1,0E0,1.9902039E-1,0E0,0E0,0E0,0E0,0E0,0E0,0E0,0E0,0E0,0E0,0E0,0E0,0E0,0E0,0E0,0E0,0E0],"parents":[2147483647,0,0,1,1,2,2,3,3,4,4,5,5,7,7,8,8,9,9,10,10,11,11,12,12,13,13,14,14,15,15,17,17,19,19,20,20,21,21,23,23],"right_children":[2,4,6,8,10,12,-1,14,16,18,20,22,24,26,28,30,-1,32,-1,34,36,38,-1,40,-1,-1,-1,-1,-1,-1,-1,-1,-1,-1,-1,-1,-1,-1,-1,-1,-1],"split_conditions":[2.4464622E0,-1.8195144E0,9.307924E0,-5.2721543E0,1.4652178E-1,-5.897652E0,-3.188926E-3,5.2650195E-1,3.053908E0,6.5948415E0,6.2625594E0,2.284118E0,2.8668377E0,2.3569787E0,1.7963446E0,3.5925052E0,5.1595338E-2,-9.029239E-2,4.7166135E-2,3.5573597E0,2.0999372E0,-6.4597926E0,-3.8660944E-3,3.7296455E0,1.7457224E-2,7.5022325E-2,-1.39620975E-2,-5.001061E-2,4.2925898E-2,-2.8932197E-2,4.4125866E-2,-5.7620812E-2,-3.574964E-2,-6.032684E-2,-4.1886583E-2,-3.908229E-2,3.3180546E-2,6.187264E-2,6.627004E-3,7.8130506E-2,3.9155897E-2],"split_indices":[27,28,24,28,28,28,0,4,14,17,3,11,2,9,5,17,0,27,0,13,9,28,0,23,0,0,0,0,0,0,0,0,0,0,0,0,0,0,0,0,0],"split_type":[0,0,0,0,0,0,0,0,0,0,0,0,0,0,0,0,0,0,0,0,0,0,0,0,0,0,0,0,0,0,0,0,0,0,0,0,0,0,0,0,0],"sum_hessian":[1.2453989E3,1.0718962E3,1.735027E2,4.130629E1,1.03059E3,1.7212964E2,1.3730749E0,1.3660912E1,2.7645378E1,1.2096791E2,9.09622E2,5.340097E0,1.6678954E2,9.258362E0,4.4025497E0,2.5180096E1,2.4652824E0,1.1905599E2,1.9119194E0,9.06982E2,2.640062E0,3.9525173E0,1.3875794E0,1.6531818E2,1.471352E0,7.4565706E0,1.8017912E0,2.4478593E0,1.9546907E0,2.3227856E1,1.95224E0,5.5173866E1,6.3882122E1,8.85707E2,2.1275E1,1.230031E0,1.4100311E0,1.9833243E0,1.969193E0,1.6092014E2,4.3980403E0],"tree_param":{"num_deleted":"0","num_feature":"29","num_nodes":"41","size_leaf_vector":"1"}},{"base_weights":[-4.7134852E-1,6.0780996E-1,-5.8447534E-1,1.662667E-1,6.937053E-1,-3.640332E-1,-5.9507626E-1,4.3012562E-1,-1.3118796E-1,7.0735717E-1,-9.232606E-3,-4.358739E-1,6.9120616E-2,-5.9591364E-2,1.88787E-3,5.704317E-1,-3.6457554E-2,3.9516162E-2,-3.1626734E-1,7.2247267E-1,2.339811E-3,-4.676699E-1,-1.5088439E-2,5.278306E-1,-4.7415096E-2,6.761285E-2,-2.568459E-3,-6.1478294E-2,6.9998833E-3,7.412178E-2,4.154772E-2,-2.9219547E-2,-5.9425324E-2,3.494209E-2,-3.910489E-2,7.285325E-4,7.171043E-2],"categories":[],"categories_nodes":[],"categories_segments":[],"categories_sizes":[],"default_left":[0,0,0,0,0,0,0,0,0,0,0,0,0,0,0,0,0,0,0,0,0,0,0,0,0,0,0,0,0,0,0,0,0,0,0,0,0],"id":24,"left_children":[1,3,5,7,9,11,13,15,17,19,-1,21,23,-1,-1,25,-1,-1,27,29,-1,31,33,35,-1,-1,-1,-1,-1,-1,-1,-1,-1,-1,-1,-1,-1],"loss_changes":[1.3835231E2,3.9709396E0,2.1755066E0,1.5367861E0,1.0297928E0,1.5717974E0,5.125427E-1,1.3484994E0,1.0633452E0,8.9764786E-1,0E0,5.63323E-1,2.2217433E0,0E0,0E0,5.897174E-1,0E0,0E0,9.28827E-1,1.8990707E-1,0E0,7.0603275E-1,6.8869776E-1,4.6401095E-1,0E0,0E0,0E0,0E0,0E0,0E0,0E0,0E0,0E0,0E0,0E0,0E0,0E0],"parents":[2147483647,0,0,1,1,2,2,3,3,4,4,5,5,6,6,7,7,8,8,9,9,11,11,12,12,15,15,18,18,19,19,21,21,22,22,23,23],"right_children":[2,4,6,8,10,12,14,16,18,20,-1,22,24,-1,-1,26,-1,-1,28,30,-1,32,34,36,-1,-1,-1,-1,-1,-1,-1,-1,-1,-1,-1,-1,-1],"split_conditions":[-9.029239E-2,-2.833735E0,-1.1996258E0,7.9953444E-1,6.55926E0,7.7336985E-1,7.692942E0,3.5925052E0,-1.5699114E-1,4.983986E0,-9.232606E-3,-1.3734987E0,2.4464622E0,-5.9591364E-2,1.88787E-3,1.4796433E0,-3.6457554E-2,3.9516162E-2,2.0160778E-1,3.1617327E0,2.339811E-3,-3.7624865E0,-5.970568E-1,-1.3043319E0,-4.7415096E-2,6.761285E-2,-2.568459E-3,-6.1478294E-2,6.9998833E-3,7.412178E-2,4.154772E-2,-2.9219547E-2,-5.9425324E-2,3.494209E-2,-3.910489E-2,7.285325E-4,7.171043E-2],"split_indices":[27,28,28,7,17,0,12,17,1,10,0,28,27,0,0,8,0,0,0,15,0,28,7,7,0,0,0,0,0,0,0,0,0,0,0,0,0],"split_type":[0,0,0,0,0,0,0,0,0,0,0,0,0,0,0,0,0,0,0,0,0,0,0,0,0,0,0,0,0,0,0,0,0,0,0,0,0],"sum_hessian":[1.129366E3,1.06741974E2,1.022624E3,1.7861422E1,8.8880554E1,4.8542595E1,9.740814E2,9.228873E0,8.632547E0,8.746161E1,1.4189444E0,4.163152E1,6.9110737E0,9.72784E2,1.2974122E0,8.083858E0,1.1450156E0,1.950475E0,6.6820726E0,8.551541E1,1.9462026E0,3.8603115E1,3.028406E0,3.7625751E0,3.1484988E0,6.7523785E0,1.3314793E0,3.435462E0,3.2466106E0,7.926129E1,6.254118E0,1.7563824E1,2.103929E1,1.573461E0,1.4549448E0,1.2802075E0,2.4823675E0],"tree_param":{"num_deleted":"0","num_feature":"29","num_nodes":"37","size_leaf_vector":"1"}},{"base_weights":[5.8512145E-1,-4.87071E-2,7.3120135E-1,1.6951579E-1,-5.262372E-1,7.433854E-1,-5.5836048E-2,-4.564736E-1,4.9252358E-1,-5.754413E-1,-1.3579284E-1,7.449901E-1,4.942488E-1,-2.3599742E-1,-5.916099E-2,1.4801134E-1,6.222484E-1,-5.853343E-2,-8.58589E-3,3.4925112E-1,-3.462093E-1,7.45407E-2,2.2712195E-2,-1.804649E-2,6.8105735E-2,-4.3814737E-2,3.4564093E-3,2.7025433E-3,5.238242E-2,6.404733E-2,-2.1585872E-2,5.2067555E-2,-9.6573465E-4,4.059783E-3,-5.145793E-2],"categories":[],"categories_nodes":[],"categories_segments":[],"categories_sizes":[],"default_left":[0,0,0,0,0,0,0,0,0,0,0,0,0,0,0,0,0,0,0,0,0,0,0,0,0,0,0,0,0,0,0,0,0,0,0],"id":25,"left_children":[1,3,5,7,9,11,-1,13,15,17,19,21,23,25,-1,27,29,-1,-1,31,33,-1,-1,-1,-1,-1,-1,-1,-1,-1,-1,-1,-1,-1,-1],"loss_changes":[1.5159058E2,3.2135803E1,2.13172E1,4.3056E1,1.7795868E0,1.5881348E-1,0E0,2.023981E0,6.1740723E0,3.6418915E-1,1.3590304E0,1.13098145E-1,1.5608017E0,1.6154426E0,0E0,1.7893503E0,1.6892624E0,0E0,0E0,2.6147747E-1,6.0461795E-1,0E0,0E0,0E0,0E0,0E0,0E0,0E0,0E0,0E0,0E0,0E0,0E0,0E0,0E0],"parents":[2147483647,0,0,1,1,2,2,3,3,4,4,5,5,7,7,8,8,9,9,10,10,11,11,12,12,13,13,15,15,16,16,19,19,20,20],"right_children":[2,4,6,8,10,12,-1,14,16,18,20,22,24,26,-1,28,30,-1,-1,32,34,-1,-1,-1,-1,-1,-1,-1,-1,-1,-1,-1,-1,-1,-1],"split_conditions":[1.934372E-1,2.4464622E0,2.4464622E0,-9.029239E-2,2.731176E0,5.9081583E0,-5.5836048E-2,-8.4213257E-1,-6.8933463E-1,3.7296455E0,-4.145555E0,7.580623E0,7.1083224E-1,7.6455325E-1,-5.916099E-2,8.407622E-1,7.6661277E0,-5.853343E-2,-8.58589E-3,2.2932129E-2,3.4759326E0,7.45407E-2,2.2712195E-2,-1.804649E-2,6.8105735E-2,-4.3814737E-2,3.4564093E-3,2.7025433E-3,5.238242E-2,6.404733E-2,-2.1585872E-2,5.2067555E-2,-9.6573465E-4,4.059783E-3,-5.145793E-2],"split_indices":[28,27,27,27,10,18,0,28,28,23,28,12,7,7,0,7,20,0,0,0,10,0,0,0,0,0,0,0,0,0,0,0,0,0,0],"split_type":[0,0,0,0,0,0,0,0,0,0,0,0,0,0,0,0,0,0,0,0,0,0,0,0,0,0,0,0,0,0,0,0,0,0,0],"sum_hessian":[1.6358466E3,3.0652533E2,1.3293213E3,2.1082637E2,9.569895E1,1.3172987E3,1.2022563E1,7.1617805E1,1.3920857E2,8.456783E1,1.1131112E1,1.3068907E3,1.0408034E1,2.825913E1,4.3358673E1,3.8665356E1,1.0054321E2,8.270111E1,1.8667223E0,3.1681669E0,7.9629455E0,1.3054004E3,1.4902452E0,2.2641938E0,8.143841E0,1.58199E1,1.2439232E1,3.0060009E1,8.605345E0,9.863419E1,1.9090211E0,1.8390617E0,1.3291051E0,2.6450896E0,5.317856E0],"tree_param":{"num_deleted":"0","num_feature":"29","num_nodes":"35","size_leaf_vector":"1"}},{"base_weights":[-3.623751E-1,-5.4186E-1,7.118614E-1,3.856264E-2,-5.6648177E-1,4.23346E-1,7.355589E-1,3.5929167E-1,-1.281416E-1,-4.2569762E-1,-5.8508366E-1,5.124144E-1,-4.241369E-3,7.442648E-1,3.1314692E-1,4.6256202E-1,-4.085929E-2,-2.0702024E-1,4.934351E-2,-4.4454178E-1,4.58395E-2,-5.8681566E-1,-1.5849369E-2,5.998316E-1,1.7362062E-3,7.489918E-2,1.5598307E-2,-2.164455E-2,6.000594E-2,5.8360945E-2,-4.046118E-2,-2.7713854E-2,4.270348E-2,-5.6166004E-2,-3.3871394E-2,-5.9094943E-2,-3.9749768E-2,3.2553155E-2,-3.811682E-2,2.9817542E-2,7.138529E-2],"categories":[],"categories_nodes":[],"categories_segments":[],"categories_sizes":[],"default_left":[0,0,0,0,0,0,0,0,0,0,0,0,0,0,0,0,0,0,0,0,0,0,0,0,0,0,0,0,0,0,0,0,0,0,0,0,0,0,0,0,0],"id":26,"left_children":[1,3,5,7,9,11,13,15,17,19,21,23,-1,25,27,29,-1,31,-1,33,-1,35,37,39,-1,-1,-1,-1,-1,-1,-1,-1,-1,-1,-1,-1,-1,-1,-1,-1,-1],"loss_changes":[2.2649321E2,1.4389832E1,8.394165E-1,2.2836053E0,2.2769165E0,6.494596E-1,3.3394623E-1,1.3448415E0,1.4883976E0,2.1403484E0,8.2803345E-1,5.426073E-1,0E0,3.012619E-1,8.6529374E-1,1.6339867E0,0E0,1.2651395E0,0E0,1.2267189E0,0E0,4.2770386E-1,5.7355803E-1,1.5968919E-1,0E0,0E0,0E0,0E0,0E0,0E0,0E0,0E0,0E0,0E0,0E0,0E0,0E0,0E0,0E0,0E0,0E0],"parents":[2147483647,0,0,1,1,2,2,3,3,4,4,5,5,6,6,7,7,8,8,9,9,10,10,11,11,13,13,14,14,15,15,17,17,19,19,21,21,22,22,23,23],"right_children":[2,4,6,8,10,12,14,16,18,20,22,24,-1,26,28,30,-1,32,-1,34,-1,36,38,40,-1,-1,-1,-1,-1,-1,-1,-1,-1,-1,-1,-1,-1,-1,-1,-1,-1],"split_conditions":[2.4464622E0,-1.8195144E0,-4.145555E0,-5.2721543E0,1.4652178E-1,2.8518834E0,3.7296455E0,3.2302384E0,3.053908E0,6.5948415E0,6.2625594E0,3.6926525E0,-4.241369E-3,5.3832016E0,1.9595341E-1,6.58857E0,-4.085929E-2,3.5925052E0,4.934351E-2,-9.029239E-2,4.58395E-2,3.5573597E0,1.2979165E0,-1.091634E0,1.7362062E-3,7.489918E-2,1.5598307E-2,-2.164455E-2,6.000594E-2,5.8360945E-2,-4.046118E-2,-2.7713854E-2,4.270348E-2,-5.6166004E-2,-3.3871394E-2,-5.9094943E-2,-3.9749768E-2,3.2553155E-2,-3.811682E-2,2.9817542E-2,7.138529E-2],"split_indices":[27,28,28,28,28,10,23,14,14,17,3,14,0,0,7,23,0,17,0,27,0,13,4,7,0,0,0,0,0,0,0,0,0,0,0,0,0,0,0,0,0],"split_type":[0,0,0,0,0,0,0,0,0,0,0,0,0,0,0,0,0,0,0,0,0,0,0,0,0,0,0,0,0,0,0,0,0,0,0,0,0,0,0,0,0],"sum_hessian":[1.1717008E3,1.00438275E3,1.6731802E2,4.0849552E1,9.635332E2,1.4131592E1,1.5318643E2,1.3575614E1,2.7273937E1,1.15241066E2,8.482921E2,1.1778912E1,2.35268E0,1.4934648E2,3.8399456E0,1.2316784E1,1.2588302E0,2.4794443E1,2.4794939E0,1.1332281E2,1.9182605E0,8.4568805E2,2.6040847E0,9.831242E0,1.9476697E0,1.47885E2,1.4614904E0,1.4356256E0,2.40432E0,1.1095042E1,1.221741E0,2.2832386E1,1.9620565E0,5.174738E1,6.1575424E1,8.2554095E2,2.0147089E1,1.4024463E0,1.2016383E0,3.6883583E0,6.1428833E0],"tree_param":{"num_deleted":"0","num_feature":"29","num_nodes":"41","size_leaf_vector":"1"}},{"base_weights":[-4.6036834E-1,5.751392E-1,-5.7315236E-1,2.1154752E-1,6.73048E-1,-3.4860232E-1,-5.843224E-1,2.9806945E-1,-3.2124868E-1,6.952069E-1,3.2057157E-1,-4.2027366E-1,7.476638E-2,-5.852101E-2,2.1448443E-3,3.7689853E-1,-4.168939E-2,-4.550664E-2,-5.4484075E-3,7.0326E-1,1.7656041E-2,-2.9413676E-2,6.383206E-2,-4.5246434E-1,-9.576457E-3,5.111476E-1,-4.6194267E-2,7.293975E-2,2.400395E-2,7.108056E-2,1.8680384E-2,-2.750924E-2,-5.838349E-2,3.426695E-2,-3.8219374E-2,6.9241844E-2,8.568399E-4],"categories":[],"categories_nodes":[],"categories_segments":[],"categories_sizes":[],"default_left":[0,0,0,0,0,0,0,0,0,0,0,0,0,0,0,0,0,0,0,0,0,0,0,0,0,0,0,0,0,0,0,0,0,0,0,0,0],"id":27,"left_children":[1,3,5,7,9,11,13,15,17,19,21,23,25,-1,-1,27,-1,-1,-1,29,-1,-1,-1,31,33,35,-1,-1,-1,-1,-1,-1,-1,-1,-1,-1,-1],"loss_changes":[1.237603E2,3.5707169E0,2.1880493E0,1.1830724E0,4.1539E-1,1.4777546E0,5.0027466E-1,1.3299953E0,1.1001846E-1,1.9338226E-1,1.4942869E0,5.365944E-1,2.0512269E0,0E0,0E0,7.544997E-1,0E0,0E0,0E0,1.5765762E-1,0E0,0E0,0E0,7.229829E-1,6.5538824E-1,4.2673266E-1,0E0,0E0,0E0,0E0,0E0,0E0,0E0,0E0,0E0,0E0,0E0],"parents":[2147483647,0,0,1,1,2,2,3,3,4,4,5,5,6,6,7,7,8,8,9,9,10,10,11,11,12,12,15,15,19,19,23,23,24,24,25,25],"right_children":[2,4,6,8,10,12,14,16,18,20,22,24,26,-1,-1,28,-1,-1,-1,30,-1,-1,-1,32,34,36,-1,-1,-1,-1,-1,-1,-1,-1,-1,-1,-1],"split_conditions":[-9.029239E-2,-1.8195144E0,-1.1996258E0,2.4322941E0,3.1617327E0,7.7336985E-1,7.692942E0,3.0094748E0,2.2932129E-2,4.819098E0,7.740794E-1,-1.3734987E0,2.4464622E0,-5.852101E-2,2.1448443E-3,-1.9827694E-1,-4.168939E-2,-4.550664E-2,-5.4484075E-3,6.442525E0,1.7656041E-2,-2.9413676E-2,6.383206E-2,-3.7624865E0,-5.970568E-1,1.224002E0,-4.6194267E-2,7.293975E-2,2.400395E-2,7.108056E-2,1.8680384E-2,-2.750924E-2,-5.838349E-2,3.426695E-2,-3.8219374E-2,6.9241844E-2,8.568399E-4],"split_indices":[27,28,28,9,15,0,12,12,0,10,7,28,27,0,0,1,0,0,0,17,0,0,0,28,7,2,0,0,0,0,0,0,0,0,0,0,0],"split_type":[0,0,0,0,0,0,0,0,0,0,0,0,0,0,0,0,0,0,0,0,0,0,0,0,0,0,0,0,0,0,0,0,0,0,0,0,0],"sum_hessian":[1.0558718E3,1.03304E2,9.525679E2,2.2586817E1,8.0717186E1,4.666544E1,9.0590247E2,1.9810331E1,2.7764857E0,7.502809E1,5.6890917E0,3.991552E1,6.749917E0,9.046108E2,1.291665E0,1.8268913E1,1.5414178E0,1.3789084E0,1.3975774E0,7.353042E1,1.4976733E0,1.9639672E0,3.7251246E0,3.6920013E1,2.9955087E0,3.7491927E0,3.0007243E0,3.8984287E0,1.4370485E1,7.21007E1,1.4297156E0,1.702605E1,1.9893963E1,1.5811617E0,1.4143469E0,2.4777756E0,1.2714171E0],"tree_param":{"num_deleted":"0","num_feature":"29","num_nodes":"37","size_leaf_vector":"1"}},{"base_weights":[5.592961E-1,-4.7131293E-2,6.997317E-1,1.588766E-1,-5.1212853E-1,7.1127087E-1,-5.4571327E-2,-4.3979287E-1,4.5877415E-1,-5.633738E-1,-1.21462725E-1,7.1288997E-1,4.643541E-1,-2.1875857E-1,-5.8086753E-2,1.3050468E-1,5.8606213E-1,-5.737826E-2,-8.057291E-3,3.3232147E-1,-3.2875887E-1,7.1332276E-2,2.10237E-2,-1.8730259E-2,6.511606E-2,-2.865017E-2,5.1627547E-2,2.0830758E-2,-3.8140714E-2,6.042373E-2,-2.1924997E-2,4.9816776E-2,-1.3159383E-3,4.820982E-3,-5.00812E-2],"categories":[],"categories_nodes":[],"categories_segments":[],"categories_sizes":[],"default_left":[0,0,0,0,0,0,0,0,0,0,0,0,0,0,0,0,0,0,0,0,0,0,0,0,0,0,0,0,0,0,0,0,0,0,0],"id":28,"left_children":[1,3,5,7,9,11,-1,13,15,17,19,21,23,25,-1,27,29,-1,-1,31,33,-1,-1,-1,-1,-1,-1,-1,-1,-1,-1,-1,-1,-1,-1],"loss_changes":[1.3306537E2,2.8307745E1,1.8617065E1,3.69999E1,1.7473946E0,1.7156982E-1,0E0,2.021882E0,5.6498165E0,3.5533714E-1,1.2185814E0,1.2145996E-1,1.4681492E0,1.5646931E0,0E0,1.6557636E0,1.5736771E0,0E0,0E0,2.4692771E-1,5.817759E-1,0E0,0E0,0E0,0E0,0E0,0E0,0E0,0E0,0E0,0E0,0E0,0E0,0E0,0E0],"parents":[2147483647,0,0,1,1,2,2,3,3,4,4,5,5,7,7,8,8,9,9,10,10,11,11,12,12,13,13,15,15,16,16,19,19,20,20],"right_children":[2,4,6,8,10,12,-1,14,16,18,20,22,24,26,-1,28,30,-1,-1,32,34,-1,-1,-1,-1,-1,-1,-1,-1,-1,-1,-1,-1,-1,-1],"split_conditions":[1.934372E-1,2.4464622E0,2.4464622E0,-9.029239E-2,2.731176E0,5.9081583E0,-5.4571327E-2,-8.4213257E-1,-6.8933463E-1,3.7296455E0,-4.145555E0,7.580623E0,7.1083224E-1,4.3261027E0,-5.8086753E-2,3.0094748E0,7.6661277E0,-5.737826E-2,-8.057291E-3,2.8523868E-1,3.4759326E0,7.1332276E-2,2.10237E-2,-1.8730259E-2,6.511606E-2,-2.865017E-2,5.1627547E-2,2.0830758E-2,-3.8140714E-2,6.042373E-2,-2.1924997E-2,4.9816776E-2,-1.3159383E-3,4.820982E-3,-5.00812E-2],"split_indices":[28,27,27,27,10,18,0,28,28,23,28,12,7,12,0,12,20,0,0,2,10,0,0,0,0,0,0,0,0,0,0,0,0,0,0],"split_type":[0,0,0,0,0,0,0,0,0,0,0,0,0,0,0,0,0,0,0,0,0,0,0,0,0,0,0,0,0,0,0,0,0,0,0],"sum_hessian":[1.5610739E3,2.9365985E2,1.2674141E3,2.039584E2,8.970144E1,1.2562041E3,1.1209957E1,6.791562E1,1.3604279E2,7.890858E1,1.0792866E1,1.2461456E3,1.0058441E1,2.7453083E1,4.0462532E1,3.8577805E1,9.746499E1,7.705882E1,1.849757E0,3.1952155E0,7.59765E0,1.2446548E3,1.4907787E0,2.2403917E0,7.8180494E0,2.5695154E1,1.7579298E0,3.400295E1,4.5748577E0,9.5558014E1,1.9069687E0,1.8602549E0,1.3349606E0,2.6065319E0,4.9911184E0],"tree_param":{"num_deleted":"0","num_feature":"29","num_nodes":"35","size_leaf_vector":"1"}},{"base_weights":[-3.5172558E-1,-5.2829635E-1,6.789386E-1,3.9027277E-2,-5.538107E-1,3.970997E-1,7.0281446E-1,1.2136212E-1,-5.563129E-2,-4.200356E-1,-5.7555115E-1,7.668781E-2,5.314431E-1,7.116626E-1,2.9024023E-1,3.1757735E-2,7.724997E-2,-4.3656626E-1,4.4527072E-2,-5.7876694E-1,-1.893559E-1,3.7648866E-1,-4.7859453E-2,6.4731103E-1,-8.335627E-4,7.166469E-2,1.2867491E-2,-2.1762824E-2,5.7241738E-2,3.081125E-2,-1.1160045E-2,-4.586968E-2,-2.4803588E-3,-5.822285E-2,-3.8349707E-2,5.2748766E-2,-5.001838E-2,1.1186114E-3,5.4699242E-2,7.403972E-2,1.0215291E-2],"categories":[],"categories_nodes":[],"categories_segments":[],"categories_sizes":[],"default_left":[0,0,0,0,0,0,0,0,0,0,0,0,0,0,0,0,0,0,0,0,0,0,0,0,0,0,0,0,0,0,0,0,0,0,0,0,0,0,0,0,0],"id":29,"left_children":[1,3,5,7,9,11,13,15,-1,17,19,21,23,25,27,29,-1,31,-1,33,35,37,-1,39,-1,-1,-1,-1,-1,-1,-1,-1,-1,-1,-1,-1,-1,-1,-1,-1,-1],"loss_changes":[2.0065273E2,1.3630798E1,8.0708313E-1,2.0967271E0,2.3751526E0,6.0083413E-1,3.3193207E-1,2.1452599E0,0E0,2.046606E0,8.4832764E-1,1.1077557E0,6.516619E-1,3.2540894E-1,8.104176E-1,1.370826E0,0E0,1.1510754E0,0E0,2.9345703E-1,2.0142324E0,2.541107E-1,0E0,3.5671592E-1,0E0,0E0,0E0,0E0,0E0,0E0,0E0,0E0,0E0,0E0,0E0,0E0,0E0,0E0,0E0,0E0,0E0],"parents":[2147483647,0,0,1,1,2,2,3,3,4,4,5,5,6,6,7,7,9,9,10,10,11,11,12,12,13,13,14,14,15,15,17,17,19,19,20,20,21,21,23,23],"right_children":[2,4,6,8,10,12,14,16,-1,18,20,22,24,26,28,30,-1,32,-1,34,36,38,-1,40,-1,-1,-1,-1,-1,-1,-1,-1,-1,-1,-1,-1,-1,-1,-1,-1,-1],"split_conditions":[2.4464622E0,-1.8195144E0,-4.145555E0,2.5182502E0,1.934372E-1,-8.427326E-2,3.7296455E0,3.5925052E0,-5.563129E-2,6.5948415E0,5.9081583E0,-1.9147864E-1,2.5922427E0,2.8668377E0,1.9595341E-1,-5.2721543E0,7.724997E-2,4.2570734E0,4.4527072E-2,3.5573597E0,7.1083224E-1,-1.091634E0,-4.7859453E-2,9.939609E-1,-8.335627E-4,7.166469E-2,1.2867491E-2,-2.1762824E-2,5.7241738E-2,3.081125E-2,-1.1160045E-2,-4.586968E-2,-2.4803588E-3,-5.822285E-2,-3.8349707E-2,5.2748766E-2,-5.001838E-2,1.1186114E-3,5.4699242E-2,7.403972E-2,1.0215291E-2],"split_indices":[27,28,28,13,28,0,23,17,0,17,18,0,11,2,7,28,0,12,0,13,7,7,0,7,0,0,0,0,0,0,0,0,0,0,0,0,0,0,0,0,0],"split_type":[0,0,0,0,0,0,0,0,0,0,0,0,0,0,0,0,0,0,0,0,0,0,0,0,0,0,0,0,0,0,0,0,0,0,0,0,0,0,0,0,0],"sum_hessian":[1.0996063E3,9.391935E2,1.6041283E2,4.039792E1,8.987956E2,1.3905004E1,1.4650781E2,3.6189148E1,4.20877E0,1.2848866E2,7.7030695E2,4.5718584E0,9.333145E0,1.4272205E2,3.7857707E0,3.273341E1,3.4557395E0,1.2656624E2,1.9224224E0,7.634511E2,6.8558073E0,3.1780136E0,1.393845E0,7.5197535E0,1.8133922E0,1.4128484E2,1.4372058E0,1.43385E0,2.3519206E0,1.0787963E1,2.1945446E1,1.2000262E2,6.563618E0,7.48206E2,1.5245111E1,1.8627713E0,4.993036E0,1.3504004E0,1.8276131E0,6.117118E0,1.4026353E0],"tree_param":{"num_deleted":"0","num_feature":"29","num_nodes":"41","size_leaf_vector":"1"}},{"base_weights":[-4.499714E-1,5.474338E-1,-5.628539E-1,1.9892459E-1,6.448282E-1,-3.3394513E-1,-5.746604E-1,2.8317177E-1,-3.1724256E-1,6.677707E-1,2.9290152E-1,-4.0546224E-1,8.150639E-2,-5.756056E-2,2.4492077E-3,3.5736337E-1,-4.0353976E-2,-4.4784006E-2,-5.6256084E-3,6.7622167E-1,1.582565E-2,-2.9753834E-2,6.0882952E-2,-4.381105E-1,-3.5590152E-3,4.9525002E-1,-4.487333E-2,5.2624304E-2,1.2151424E-2,6.8378694E-2,1.7846942E-2,-2.6010035E-2,-5.740681E-2,3.381131E-2,-3.738841E-2,8.972757E-4,6.6995576E-2],"categories":[],"categories_nodes":[],"categories_segments":[],"categories_sizes":[],"default_left":[0,0,0,0,0,0,0,0,0,0,0,0,0,0,0,0,0,0,0,0,0,0,0,0,0,0,0,0,0,0,0,0,0,0,0,0,0],"id":30,"left_children":[1,3,5,7,9,11,13,15,17,19,21,23,25,-1,-1,27,-1,-1,-1,29,-1,-1,-1,31,33,35,-1,-1,-1,-1,-1,-1,-1,-1,-1,-1,-1],"loss_changes":[1.1135591E2,3.2926369E0,2.20401E0,1.1099832E0,4.3680573E-1,1.3959103E0,4.9069214E-1,1.1986405E0,1.03076756E-1,2.062378E-1,1.4076122E0,5.1411533E-1,1.8827626E0,0E0,0E0,7.0113015E-1,0E0,0E0,0E0,1.4629364E-1,0E0,0E0,0E0,7.301631E-1,6.275803E-1,3.9556777E-1,0E0,0E0,0E0,0E0,0E0,0E0,0E0,0E0,0E0,0E0,0E0],"parents":[2147483647,0,0,1,1,2,2,3,3,4,4,5,5,6,6,7,7,8,8,9,9,10,10,11,11,12,12,15,15,19,19,23,23,24,24,25,25],"right_children":[2,4,6,8,10,12,14,16,18,20,22,24,26,-1,-1,28,-1,-1,-1,30,-1,-1,-1,32,34,36,-1,-1,-1,-1,-1,-1,-1,-1,-1,-1,-1],"split_conditions":[-9.029239E-2,-1.8195144E0,-1.1996258E0,2.4322941E0,3.1617327E0,7.7336985E-1,7.692942E0,3.0094748E0,2.2932129E-2,4.819098E0,7.740794E-1,-1.3734987E0,2.4464622E0,-5.756056E-2,2.4492077E-3,7.9953444E-1,-4.0353976E-2,-4.4784006E-2,-5.6256084E-3,6.442525E0,1.582565E-2,-2.9753834E-2,6.0882952E-2,-3.7624865E0,-5.970568E-1,-1.3043319E0,-4.487333E-2,5.2624304E-2,1.2151424E-2,6.8378694E-2,1.7846942E-2,-2.6010035E-2,-5.740681E-2,3.381131E-2,-3.738841E-2,8.972757E-4,6.6995576E-2],"split_indices":[27,28,28,9,15,0,12,12,0,10,7,28,27,0,0,7,0,0,0,17,0,0,0,28,7,7,0,0,0,0,0,0,0,0,0,0,0],"split_type":[0,0,0,0,0,0,0,0,0,0,0,0,0,0,0,0,0,0,0,0,0,0,0,0,0,0,0,0,0,0,0,0,0,0,0,0,0],"sum_hessian":[9.8530615E2,9.978427E1,8.855219E2,2.2459454E1,7.7324814E1,4.4869247E1,8.4065265E2,1.9696112E1,2.7633424E0,7.17499E1,5.5749183E0,3.830018E1,6.569069E0,8.393679E2,1.2847245E0,1.8208487E1,1.487624E0,1.364564E0,1.3987783E0,7.02574E1,1.4925009E0,1.9635099E0,3.6114085E0,3.533933E1,2.960849E0,3.7269416E0,2.8421273E0,9.893197E0,8.31529E0,6.8837395E1,1.4200034E0,1.6564465E1,1.8774864E1,1.5852432E0,1.375606E0,1.2629621E0,2.4639797E0],"tree_param":{"num_deleted":"0","num_feature":"29","num_nodes":"37","size_leaf_vector":"1"}},{"base_weights":[5.367228E-1,-4.6372335E-2,6.7283446E-1,1.4819342E-1,-4.9874544E-1,6.8385094E-1,-5.3410884E-2,-4.2363945E-1,4.2650995E-1,-5.522413E-1,-1.0682903E-1,6.8459487E-1,2.7110025E-1,-2.0254806E-1,-5.7082336E-2,1.1217866E-1,5.525407E-1,-5.6404907E-2,-8.915777E-3,3.2134363E-1,-3.1177127E-1,6.850455E-1,1.9445805E-2,5.0504368E-2,-8.674136E-3,-4.0804382E-2,5.852762E-3,-5.1022746E-4,4.7803007E-2,5.7083208E-2,-2.2401005E-2,4.7936793E-2,-1.0788174E-3,5.547236E-3,-4.877143E-2,6.8579905E-2,3.232793E-2],"categories":[],"categories_nodes":[],"categories_segments":[],"categories_sizes":[],"default_left":[0,0,0,0,0,0,0,0,0,0,0,0,0,0,0,0,0,0,0,0,0,0,0,0,0,0,0,0,0,0,0,0,0,0,0,0,0],"id":31,"left_children":[1,3,5,7,9,11,-1,13,15,17,19,21,23,25,-1,27,29,-1,-1,31,33,35,-1,-1,-1,-1,-1,-1,-1,-1,-1,-1,-1,-1,-1,-1,-1],"loss_changes":[1.1774487E2,2.4861952E1,1.6354736E1,3.1644943E1,1.7216129E0,1.8041992E-1,0E0,2.0068388E0,5.2257786E0,3.5701752E-1,1.1040664E0,1.2939453E-1,3.619509E-1,1.5055424E0,0E0,1.6953806E0,1.4775772E0,0E0,0E0,2.2538093E-1,5.5976295E-1,1.0217285E-1,0E0,0E0,0E0,0E0,0E0,0E0,0E0,0E0,0E0,0E0,0E0,0E0,0E0,0E0,0E0],"parents":[2147483647,0,0,1,1,2,2,3,3,4,4,5,5,7,7,8,8,9,9,10,10,11,11,12,12,13,13,15,15,16,16,19,19,20,20,21,21],"right_children":[2,4,6,8,10,12,-1,14,16,18,20,22,24,26,-1,28,30,-1,-1,32,34,36,-1,-1,-1,-1,-1,-1,-1,-1,-1,-1,-1,-1,-1,-1,-1],"split_conditions":[1.934372E-1,2.4464622E0,2.4464622E0,-9.029239E-2,2.731176E0,6.2625594E0,-5.3410884E-2,-8.4213257E-1,-6.8933463E-1,6.3270082E0,-4.145555E0,7.580623E0,2.0999372E0,7.6455325E-1,-5.7082336E-2,8.407622E-1,7.6661277E0,-5.6404907E-2,-8.915777E-3,2.2932129E-2,3.4759326E0,7.5740986E0,1.9445805E-2,5.0504368E-2,-8.674136E-3,-4.0804382E-2,5.852762E-3,-5.1022746E-4,4.7803007E-2,5.7083208E-2,-2.2401005E-2,4.7936793E-2,-1.0788174E-3,5.547236E-3,-4.877143E-2,6.8579905E-2,3.232793E-2],"split_indices":[28,27,27,27,10,3,0,28,28,20,28,12,9,7,0,7,20,0,0,0,10,18,0,0,0,0,0,0,0,0,0,0,0,0,0,0,0],"split_type":[0,0,0,0,0,0,0,0,0,0,0,0,0,0,0,0,0,0,0,0,0,0,0,0,0,0,0,0,0,0,0,0,0,0,0,0,0],"sum_hessian":[1.4821753E3,2.806301E2,1.2015453E3,1.9670125E2,8.392883E1,1.1911067E3,1.04385605E1,6.422388E1,1.3247739E2,7.3488686E1,1.0440149E1,1.1883064E3,2.800322E0,2.661719E1,3.760668E1,3.845571E1,9.402167E1,7.144884E1,2.0398424E0,3.19567E0,7.2444787E0,1.1868176E3,1.4887922E0,1.4445612E0,1.3557607E0,1.4578975E1,1.2038216E1,2.9867231E1,8.588481E0,9.2116806E1,1.9048612E0,1.8650128E0,1.3306572E0,2.5683362E0,4.6761427E0,1.1834565E3,3.360997E0],"tree_param":{"num_deleted":"0","num_feature":"29","num_nodes":"37","size_leaf_vector":"1"}},{"base_weights":[-3.4170943E-1,-5.153789E-1,6.5036124E-1,3.961281E-2,-5.4198223E-1,3.730233E-1,6.746815E-1,1.1842668E-1,-5.4282732E-2,-4.0253705E-1,-5.652039E-1,6.33853E-2,5.036269E-1,6.8376344E-1,2.6914245E-1,3.2058835E-2,7.444119E-2,-4.1939718E-1,4.337099E-2,-5.685716E-1,-1.7635392E-1,3.541814E-1,-4.6815302E-2,6.1681753E-1,-1.4639118E-3,6.889342E-2,1.1254675E-2,-2.183439E-2,5.475672E-2,2.9302819E-2,-1.0477501E-2,-4.3701928E-2,7.398785E-3,-5.723095E-2,-3.6284707E-2,4.9218666E-2,-4.873853E-2,-8.0535116E-5,5.2416828E-2,7.096482E-2,8.796869E-3],"categories":[],"categories_nodes":[],"categories_segments":[],"categories_sizes":[],"default_left":[0,0,0,0,0,0,0,0,0,0,0,0,0,0,0,0,0,0,0,0,0,0,0,0,0,0,0,0,0,0,0,0,0,0,0,0,0,0,0,0,0],"id":32,"left_children":[1,3,5,7,9,11,13,15,-1,17,19,21,23,25,27,29,-1,31,-1,33,35,37,-1,39,-1,-1,-1,-1,-1,-1,-1,-1,-1,-1,-1,-1,-1,-1,-1,-1,-1],"loss_changes":[1.7793939E2,1.2982117E1,7.8712463E-1,1.9502664E0,2.485199E0,5.606582E-1,3.329277E-1,1.9770296E0,0E0,1.9170322E0,8.369293E-1,1.0145671E0,6.0517836E-1,3.260231E-1,7.60684E-1,1.2293597E0,0E0,1.0856018E0,0E0,3.376007E-1,1.8190858E0,2.4895251E-1,0E0,3.4818292E-1,0E0,0E0,0E0,0E0,0E0,0E0,0E0,0E0,0E0,0E0,0E0,0E0,0E0,0E0,0E0,0E0,0E0],"parents":[2147483647,0,0,1,1,2,2,3,3,4,4,5,5,6,6,7,7,9,9,10,10,11,11,12,12,13,13,14,14,15,15,17,17,19,19,20,20,21,21,23,23],"right_children":[2,4,6,8,10,12,14,16,-1,18,20,22,24,26,28,30,-1,32,-1,34,36,38,-1,40,-1,-1,-1,-1,-1,-1,-1,-1,-1,-1,-1,-1,-1,-1,-1,-1,-1],"split_conditions":[2.4464622E0,-1.8195144E0,-4.145555E0,2.5182502E0,1.934372E-1,-8.427326E-2,3.7296455E0,3.5925052E0,-5.4282732E-2,6.5948415E0,5.9081583E0,-1.9147864E-1,2.5922427E0,5.3832016E0,1.9595341E-1,-5.2721543E0,7.444119E-2,4.4924E0,4.337099E-2,3.5573597E0,7.1083224E-1,-1.091634E0,-4.6815302E-2,9.939609E-1,-1.4639118E-3,6.889342E-2,1.1254675E-2,-2.183439E-2,5.475672E-2,2.9302819E-2,-1.0477501E-2,-4.3701928E-2,7.398785E-3,-5.723095E-2,-3.6284707E-2,4.9218666E-2,-4.873853E-2,-8.0535116E-5,5.2416828E-2,7.096482E-2,8.796869E-3],"split_indices":[27,28,28,13,28,0,23,17,0,17,18,0,11,0,7,28,0,20,0,13,7,7,0,7,0,0,0,0,0,0,0,0,0,0,0,0,0,0,0,0,0],"split_type":[0,0,0,0,0,0,0,0,0,0,0,0,0,0,0,0,0,0,0,0,0,0,0,0,0,0,0,0,0,0,0,0,0,0,0,0,0,0,0,0,0],"sum_hessian":[1.0298304E3,8.768174E2,1.53013E2,4.008501E1,8.3673236E2,1.3653392E1,1.3935962E2,3.6009056E1,4.075955E0,1.2206605E2,7.146663E2,4.4911046E0,9.162288E0,1.3563602E2,3.7236004E0,3.256697E1,3.4420865E0,1.2014226E2,1.9237881E0,7.080717E2,6.59461E0,3.118623E0,1.3724817E0,7.3638477E0,1.7984396E0,1.3421501E2,1.4210078E0,1.4320505E0,2.29155E0,1.080954E1,2.1757431E1,1.1610945E2,4.032803E0,6.9368616E2,1.4385533E1,1.9089719E0,4.6856384E0,1.3320789E0,1.7865441E0,5.973437E0,1.3904108E0],"tree_param":{"num_deleted":"0","num_feature":"29","num_nodes":"41","size_leaf_vector":"1"}},{"base_weights":[-4.403213E-1,5.223391E-1,-5.534248E-1,2.0863102E-1,6.277233E-1,-3.200115E-1,-5.659379E-1,5.2039355E-1,4.8790615E-2,6.370651E-1,7.856244E-3,-3.913728E-1,8.731752E-2,-5.6694623E-2,2.6553571E-3,1.8412602E-1,6.447421E-2,5.0254423E-2,-8.382257E-2,6.467138E-1,1.0382611E-2,-4.1150486E-1,1.6751684E-2,4.8005325E-1,-4.3659102E-2,3.12726E-2,-3.0193317E-3,-3.0685896E-2,2.144878E-2,6.554108E-2,1.2436435E-2,-4.4843268E-2,2.1583315E-3,6.510585E-2,6.1239203E-4],"categories":[],"categories_nodes":[],"categories_segments":[],"categories_sizes":[],"default_left":[0,0,0,0,0,0,0,0,0,0,0,0,0,0,0,0,0,0,0,0,0,0,0,0,0,0,0,0,0,0,0,0,0,0,0],"id":33,"left_children":[1,3,5,7,9,11,13,15,17,19,-1,21,23,-1,-1,25,-1,-1,27,29,-1,31,-1,33,-1,-1,-1,-1,-1,-1,-1,-1,-1,-1,-1],"loss_changes":[1.00331604E2,3.0797577E0,2.221817E0,1.2662129E0,3.2034492E-1,1.3178554E0,4.8075867E-1,2.4428868E-1,1.1395574E0,2.9738617E-1,0E0,4.9380493E-1,1.7324189E0,0E0,0E0,1.1261441E-1,0E0,0E0,1.061841E0,2.3376846E-1,0E0,5.97219E-1,0E0,3.7743974E-1,0E0,0E0,0E0,0E0,0E0,0E0,0E0,0E0,0E0,0E0,0E0],"parents":[2147483647,0,0,1,1,2,2,3,3,4,4,5,5,6,6,7,7,8,8,9,9,11,11,12,12,15,15,18,18,19,19,21,21,23,23],"right_children":[2,4,6,8,10,12,14,16,18,20,-1,22,24,-1,-1,26,-1,-1,28,30,-1,32,-1,34,-1,-1,-1,-1,-1,-1,-1,-1,-1,-1,-1],"split_conditions":[-9.029239E-2,-1.661529E0,-1.1996258E0,2.974612E-1,6.7404275E0,7.7336985E-1,7.692942E0,-5.2721543E0,-1.9147864E-1,5.1161327E0,7.856244E-3,3.8745322E0,2.4464622E0,-5.6694623E-2,2.6553571E-3,-1.2802999E-2,6.447421E-2,5.0254423E-2,1.2986815E0,6.9464183E0,1.0382611E-2,3.8989754E0,1.6751684E-2,1.224002E0,-4.3659102E-2,3.12726E-2,-3.0193317E-3,-3.0685896E-2,2.144878E-2,6.554108E-2,1.2436435E-2,-4.4843268E-2,2.1583315E-3,6.510585E-2,6.1239203E-4],"split_indices":[27,28,28,7,26,0,12,28,0,10,0,5,27,0,0,0,0,0,3,16,0,14,0,2,0,0,0,0,0,0,0,0,0,0,0],"split_type":[0,0,0,0,0,0,0,0,0,0,0,0,0,0,0,0,0,0,0,0,0,0,0,0,0,0,0,0,0,0,0,0,0,0,0],"sum_hessian":[9.17831E2,9.611835E1,8.2171265E2,2.4919025E1,7.1199326E1,4.3162037E1,7.785506E2,7.681279E0,1.7237745E1,6.985102E1,1.3483073E0,3.676094E1,6.401097E0,7.7727094E2,1.2797012E0,2.7433486E0,4.9379306E0,3.2676156E0,1.397013E1,6.840054E1,1.4504775E0,3.5737335E1,1.0236049E0,3.7063937E0,2.6947029E0,1.4275835E0,1.3157651E0,7.977197E0,5.9929323E0,6.702977E1,1.3707697E0,3.2896908E1,2.8404274E0,2.4489918E0,1.2574021E0],"tree_param":{"num_deleted":"0","num_feature":"29","num_nodes":"35","size_leaf_vector":"1"}},{"base_weights":[5.167992E-1,-4.576356E-2,6.496788E-1,1.3804989E-1,-4.8594147E-1,6.602505E-1,-5.2302666E-2,-4.0803474E-1,3.9704967E-1,-5.4185575E-1,-9.271313E-2,6.619218E-1,4.1575417E-1,-1.8753487E-1,-5.617551E-2,9.581565E-2,5.222621E-1,-5.5437822E-2,-7.790522E-3,3.1136534E-1,-2.951895E-1,6.624031E-2,1.7971475E-2,-1.8797891E-2,6.0244855E-2,-3.1895142E-2,2.0785773E-2,2.6364978E-3,7.064819E-2,5.405E-2,-2.213212E-2,4.5829576E-2,-4.91637E-4,6.24182E-3,-4.7518052E-2],"categories":[],"categories_nodes":[],"categories_segments":[],"categories_sizes":[],"default_left":[0,0,0,0,0,0,0,0,0,0,0,0,0,0,0,0,0,0,0,0,0,0,0,0,0,0,0,0,0,0,0,0,0,0,0],"id":34,"left_children":[1,3,5,7,9,11,-1,13,15,17,19,21,23,25,-1,27,29,-1,-1,31,33,-1,-1,-1,-1,-1,-1,-1,-1,-1,-1,-1,-1,-1,-1],"loss_changes":[1.0486862E2,2.1824492E1,1.441098E1,2.7101536E1,1.6963043E0,1.8444824E-1,0E0,1.9883299E0,4.842119E0,3.59663E-1,9.99694E-1,1.3989258E-1,1.2771266E0,1.4627138E0,0E0,1.6484637E0,1.3590717E0,0E0,0E0,1.9698921E-1,5.384688E-1,0E0,0E0,0E0,0E0,0E0,0E0,0E0,0E0,0E0,0E0,0E0,0E0,0E0,0E0],"parents":[2147483647,0,0,1,1,2,2,3,3,4,4,5,5,7,7,8,8,9,9,10,10,11,11,12,12,13,13,15,15,16,16,19,19,20,20],"right_children":[2,4,6,8,10,12,-1,14,16,18,20,22,24,26,-1,28,30,-1,-1,32,34,-1,-1,-1,-1,-1,-1,-1,-1,-1,-1,-1,-1,-1,-1],"split_conditions":[1.934372E-1,2.4464622E0,2.4464622E0,-9.029239E-2,2.731176E0,5.9081583E0,-5.2302666E-2,-8.4213257E-1,-6.8933463E-1,6.3270082E0,-4.145555E0,7.580623E0,7.1083224E-1,3.797242E-1,-5.617551E-2,3.7296455E0,7.6661277E0,-5.5437822E-2,-7.790522E-3,2.2932129E-2,3.4759326E0,6.624031E-2,1.7971475E-2,-1.8797891E-2,6.0244855E-2,-3.1895142E-2,2.0785773E-2,2.6364978E-3,7.064819E-2,5.405E-2,-2.213212E-2,4.5829576E-2,-4.91637E-4,6.24182E-3,-4.7518052E-2],"split_indices":[28,27,27,27,10,18,0,28,28,20,28,12,7,1,0,23,20,0,0,0,10,0,0,0,0,0,0,0,0,0,0,0,0,0,0],"split_type":[0,0,0,0,0,0,0,0,0,0,0,0,0,0,0,0,0,0,0,0,0,0,0,0,0,0,0,0,0,0,0,0,0,0,0],"sum_hessian":[1.401468E3,2.6790668E2,1.1335613E3,1.8947176E2,7.843494E1,1.123867E3,9.694401E0,6.076892E1,1.2870284E2,6.833957E1,1.0095364E1,1.1145409E3,9.325989E0,2.5874277E1,3.4894646E1,3.8307793E1,9.039504E1,6.635371E1,1.9858613E0,3.1904514E0,6.9049125E0,1.1130563E3,1.4846553E0,2.2011192E0,7.12487E0,1.9564846E1,6.3094316E0,3.533261E1,2.9751804E0,8.8497574E1,1.8974681E0,1.8718584E0,1.318593E0,2.5305023E0,4.37441E0],"tree_param":{"num_deleted":"0","num_feature":"29","num_nodes":"35","size_leaf_vector":"1"}},{"base_weights":[-3.32255E-1,-5.0305206E-1,6.25268E-1,-7.948458E-2,-5.395811E-1,3.505133E-1,6.5027344E-1,3.1323048E-1,-1.856028E-1,-4.167321E-1,-5.557417E-1,5.093644E-2,4.7778568E-1,6.597389E-1,2.4707563E-1,5.064012E-1,-1.0808811E-1,-2.272049E-1,6.2451925E-2,-4.4103938E-1,3.6876038E-1,-5.592875E-1,-1.6230558E-1,3.3334163E-1,-4.582151E-2,5.8876514E-1,-2.0383324E-3,6.652503E-2,8.840542E-3,-2.2186052E-2,5.2370068E-2,6.6883706E-2,-1.5639843E-2,-4.956193E-2,3.7204787E-2,-2.8008247E-2,4.0517397E-2,-4.5050558E-2,1.748789E-2,5.7448536E-2,-2.969237E-4,-5.6333374E-2,-3.4231197E-2,4.7586832E-2,-4.7605734E-2,-1.2051036E-3,5.032915E-2,6.818135E-2,7.463948E-3],"categories":[],"categories_nodes":[],"categories_segments":[],"categories_sizes":[],"default_left":[0,0,0,0,0,0,0,0,0,0,0,0,0,0,0,0,0,0,0,0,0,0,0,0,0,0,0,0,0,0,0,0,0,0,0,0,0,0,0,0,0,0,0,0,0,0,0,0,0],"id":35,"left_children":[1,3,5,7,9,11,13,15,17,19,21,23,25,27,29,31,33,35,-1,37,39,41,43,45,-1,47,-1,-1,-1,-1,-1,-1,-1,-1,-1,-1,-1,-1,-1,-1,-1,-1,-1,-1,-1,-1,-1,-1,-1],"loss_changes":[1.5792961E2,1.2620209E1,7.774315E-1,2.8149288E0,1.2638855E0,5.237944E-1,3.4441376E-1,1.2303275E0,1.9182478E0,1.9110069E0,8.337097E-1,9.300291E-1,5.6322527E-1,3.4835815E-1,7.1917963E-1,1.1898077E0,1.1826268E0,1.814348E0,0E0,5.993042E-1,2.535534E-1,3.834381E-1,1.6938016E0,2.4415323E-1,0E0,3.407781E-1,0E0,0E0,0E0,0E0,0E0,0E0,0E0,0E0,0E0,0E0,0E0,0E0,0E0,0E0,0E0,0E0,0E0,0E0,0E0,0E0,0E0,0E0,0E0],"parents":[2147483647,0,0,1,1,2,2,3,3,4,4,5,5,6,6,7,7,8,8,9,9,10,10,11,11,12,12,13,13,14,14,15,15,16,16,17,17,19,19,20,20,21,21,22,22,23,23,25,25],"right_children":[2,4,6,8,10,12,14,16,18,20,22,24,26,28,30,32,34,36,-1,38,40,42,44,46,-1,48,-1,-1,-1,-1,-1,-1,-1,-1,-1,-1,-1,-1,-1,-1,-1,-1,-1,-1,-1,-1,-1,-1,-1],"split_conditions":[2.4464622E0,-6.029887E-1,-4.145555E0,-5.2721543E0,1.934372E-1,-8.427326E-2,3.7296455E0,5.2650195E-1,8.308722E0,7.6661277E0,5.9081583E0,-1.9147864E-1,2.5922427E0,2.8668377E0,1.9595341E-1,2.3569787E0,1.7963446E0,4.0470023E0,6.2451925E-2,8.438844E0,8.051106E0,3.5573597E0,7.1083224E-1,-1.091634E0,-4.582151E-2,9.939609E-1,-2.0383324E-3,6.652503E-2,8.840542E-3,-2.2186052E-2,5.2370068E-2,6.6883706E-2,-1.5639843E-2,-4.956193E-2,3.7204787E-2,-2.8008247E-2,4.0517397E-2,-4.5050558E-2,1.748789E-2,5.7448536E-2,-2.969237E-4,-5.6333374E-2,-3.4231197E-2,4.7586832E-2,-4.7605734E-2,-1.2051036E-3,5.032915E-2,6.818135E-2,7.463948E-3],"split_indices":[27,28,28,28,28,0,23,4,26,20,18,0,11,2,7,9,5,15,0,23,20,13,7,7,0,7,0,0,0,0,0,0,0,0,0,0,0,0,0,0,0,0,0,0,0,0,0,0,0],"split_type":[0,0,0,0,0,0,0,0,0,0,0,0,0,0,0,0,0,0,0,0,0,0,0,0,0,0,0,0,0,0,0,0,0,0,0,0,0,0,0,0,0,0,0,0,0,0,0,0,0],"sum_hessian":[9.6275824E2,8.1742554E2,1.4533272E2,6.515102E1,7.522745E2,1.3376134E1,1.3195659E2,1.3444567E1,5.170645E1,9.057031E1,6.6170416E2,4.40582E0,8.970314E0,1.2830817E2,3.6484234E0,9.079676E0,4.3648915E0,4.986527E1,1.8411831E0,8.827707E1,2.2932413E0,6.553762E2,6.3279443E0,3.0560536E0,1.3497664E0,7.1873055E0,1.7830083E0,1.2691947E2,1.3886974E0,1.427126E0,2.2212973E0,7.2851543E0,1.7945213E0,2.39753E0,1.9673612E0,4.6531544E1,3.333726E0,8.720535E1,1.0717139E0,1.1251273E0,1.168114E0,6.4181116E2,1.3565066E1,1.9153671E0,4.412577E0,1.3142223E0,1.7418314E0,5.809686E0,1.377619E0],"tree_param":{"num_deleted":"0","num_feature":"29","num_nodes":"49","size_leaf_vector":"1"}},{"base_weights":[-4.3120906E-1,5.0001144E-1,-5.4472023E-1,1.9816834E-1,6.053178E-1,-3.065553E-1,-5.580198E-1,5.0301343E-1,4.362288E-2,6.1481017E-1,7.264705E-3,-3.77201E-1,8.965183E-2,-5.591001E-2,2.9525668E-3,1.82106E-1,6.2291354E-2,4.773098E-2,-8.258246E-2,6.2496537E-1,8.73367E-3,-4.1188365E-1,2.3697454E-2,4.6032915E-1,-4.249755E-2,3.0973157E-2,-3.095918E-3,-2.9918423E-2,2.0485666E-2,6.405794E-2,2.4660263E-2,-2.2999013E-2,-5.583499E-2,3.56004E-2,-3.5610702E-2,4.075621E-5,6.298826E-2],"categories":[],"categories_nodes":[],"categories_segments":[],"categories_sizes":[],"default_left":[0,0,0,0,0,0,0,0,0,0,0,0,0,0,0,0,0,0,0,0,0,0,0,0,0,0,0,0,0,0,0,0,0,0,0,0,0],"id":36,"left_children":[1,3,5,7,9,11,13,15,17,19,-1,21,23,-1,-1,25,-1,-1,27,29,-1,31,33,35,-1,-1,-1,-1,-1,-1,-1,-1,-1,-1,-1,-1,-1],"loss_changes":[9.061273E1,2.848236E0,2.2434387E0,1.1859694E0,3.0291557E-1,1.2243798E0,4.73938E-1,2.1478415E-1,1.030566E0,3.0647087E-1,0E0,5.1434946E-1,1.5775886E0,0E0,0E0,1.1110923E-1,0E0,0E0,9.8766845E-1,2.3175621E-1,0E0,7.628727E-1,6.1081874E-1,3.655724E-1,0E0,0E0,0E0,0E0,0E0,0E0,0E0,0E0,0E0,0E0,0E0,0E0,0E0],"parents":[2147483647,0,0,1,1,2,2,3,3,4,4,5,5,6,6,7,7,8,8,9,9,11,11,12,12,15,15,18,18,19,19,21,21,22,22,23,23],"right_children":[2,4,6,8,10,12,14,16,18,20,-1,22,24,-1,-1,26,-1,-1,28,30,-1,32,34,36,-1,-1,-1,-1,-1,-1,-1,-1,-1,-1,-1,-1,-1],"split_conditions":[-9.029239E-2,-1.661529E0,-1.1996258E0,2.974612E-1,6.7404275E0,7.7336985E-1,7.692942E0,-5.2721543E0,-1.9147864E-1,5.1161327E0,7.264705E-3,-1.3734987E0,2.4464622E0,-5.591001E-2,2.9525668E-3,-1.2802999E-2,6.2291354E-2,4.773098E-2,1.2986815E0,6.1375413E0,8.73367E-3,-3.7624865E0,-5.970568E-1,-1.3043319E0,-4.249755E-2,3.0973157E-2,-3.095918E-3,-2.9918423E-2,2.0485666E-2,6.405794E-2,2.4660263E-2,-2.2999013E-2,-5.583499E-2,3.56004E-2,-3.5610702E-2,4.075621E-5,6.298826E-2],"split_indices":[27,28,28,7,26,0,12,28,0,10,0,28,27,0,0,0,0,0,3,17,0,28,7,7,0,0,0,0,0,0,0,0,0,0,0,0,0],"split_type":[0,0,0,0,0,0,0,0,0,0,0,0,0,0,0,0,0,0,0,0,0,0,0,0,0,0,0,0,0,0,0,0,0,0,0,0,0],"sum_hessian":[8.536549E2,9.23805E1,7.6127435E2,2.463893E1,6.774157E1,4.15348E1,7.1973956E2,7.5303392E0,1.7108591E1,6.640402E1,1.3375491E0,3.5290333E1,6.2444706E0,7.1846704E2,1.2725097E0,2.7333796E0,4.7969594E0,3.2293553E0,1.3879235E1,6.496839E1,1.4356325E0,3.245516E1,2.835174E0,3.6912415E0,2.5532289E0,1.4256966E0,1.3076831E0,7.891602E0,5.987633E0,6.1728012E1,3.2403793E0,1.5623233E1,1.6831926E1,1.5455629E0,1.2896113E0,1.2642658E0,2.4269757E0],"tree_param":{"num_deleted":"0","num_feature":"29","num_nodes":"37","size_leaf_vector":"1"}},{"base_weights":[4.9901313E-1,-4.5395147E-2,6.295575E-1,1.282304E-1,-4.7365925E-1,6.397665E-1,-5.1272828E-2,-3.9245725E-1,3.6954722E-1,-5.3207964E-1,-7.965865E-2,6.4058363E-1,2.3260349E-1,-1.7286626E-1,-5.5336095E-2,8.213245E-2,4.9375144E-1,-5.4471552E-2,-4.8684566E-3,2.1265152E-1,-3.550313E-1,6.410928E-1,1.6590284E-2,-9.884025E-3,4.5686204E-2,-2.7949288E-2,2.9772675E-2,-2.9725009E-3,4.3248948E-2,5.091387E-2,-3.2856613E-2,-3.804521E-2,4.785727E-2,-4.714508E-2,9.725514E-3,6.419142E-2,2.7549047E-2],"categories":[],"categories_nodes":[],"categories_segments":[],"categories_sizes":[],"default_left":[0,0,0,0,0,0,0,0,0,0,0,0,0,0,0,0,0,0,0,0,0,0,0,0,0,0,0,0,0,0,0,0,0,0,0,0,0],"id":37,"left_children":[1,3,5,7,9,11,-1,13,15,17,19,21,23,25,-1,27,29,-1,-1,31,33,35,-1,-1,-1,-1,-1,-1,-1,-1,-1,-1,-1,-1,-1,-1,-1],"loss_changes":[9.394113E1,1.9134356E1,1.2758179E1,2.3177261E1,1.66572E0,2.0269775E-1,0E0,1.9725542E0,4.4491577E0,3.6714935E-1,9.4149375E-1,1.4840698E-1,3.1921166E-1,1.3982482E0,0E0,1.5471351E0,1.2759476E0,0E0,0E0,1.1038063E0,3.5727012E-1,1.3934326E-1,